"kate" -0.0313314311206341 -0.510824806988239 0.922620534896851 0.126747303642333 -0.215519160032272 0.315048441290855 -0.26918525993824 -1.43038564920425 0.412275835871696 0.318535983562469 0.0255761593580246 0.0399521198123693 0.145704472437501 0.198417745530605 -0.28702537715435 0.00896645337343216 0.0811598300933838 -0.392709359526634 0.381287954747677 0.567521795630455 0.0534511860460043 0.160002948716283 0.0409588310867548 -0.0110423862934113 0.366781812161207 0.323260925710201 0.0528936237096786 -0.535480916500092 0.186636164784431 0.0491121038794518 -0.0803847792558372 -0.271394543349743 -0.135478831827641 0.110923649743199 0.17156870290637 -0.365418627858162 -0.937350958585739 0.104251218959689 -0.700222820043564 -0.112955950200558 -0.313582859933376 -0.315031491219997 -0.176992662250996 0.392911739647388 0.182034091092646 0.287122344365343 0.330117776989937 -0.4815673828125 0.632110029459 0.115094415843487
"christians" 1.08951759338379 -0.763487100601196 0.321718767285347 -0.135647118091583 -0.840552099049091 0.771821975708008 0.60581910982728 0.677781224250793 0.872361660003662 -0.0559651255607605 0.157941736280918 0.502028122544289 -0.241174891591072 -0.255605138838291 -0.871981233358383 0.675095424056053 0.0660291165113449 0.294815365225077 -0.470106475055218 0.803447157144547 -0.239158488810062 0.998788446187973 0.439358375966549 0.857389360666275 -0.341291788965464 0.523100099526346 0.417950175702572 -0.715197037905455 -0.114892810583115 -0.610837697982788 0.512263596057892 -0.00506381690502167 -0.192202895879745 0.167492963373661 0.101082295179367 -0.357213623821735 -0.523764923214912 -0.40912951529026 0.243189426138997 -0.226950973272324 0.186196476221085 0.163158088922501 -0.684156477451324 -0.292481780052185 0.506087377667427 -0.324396940879524 -0.666035294532776 0.711651563644409 -0.238543124869466 0.0325543321669102
"pity" -1.50949186086655 0.513863064348698 -0.87307795882225 0.239433482289314 0.0903296023607254 -0.360077545046806 -0.561983704566956 -0.264499917626381 0.269880345091224 0.226027473807335 -0.164987292140722 -0.123210977297276 -0.0948231965303421 0.311655968427658 -0.23730506747961 0.370298191905022 -0.183381147682667 0.561508610844612 -0.271694517694414 0.219351788982749 -0.0324709285050631 0.315860092639923 1.14466851949692 -0.321730688214302 1.17561656236649 0.36265530064702 -0.136079788208008 -1.06597274541855 0.101551078259945 -1.05649256706238 0.0646818894892931 0.738279819488525 -0.207516636699438 0.540421485900879 -0.196302831172943 -1.24769586324692 -0.186146706342697 -0.102015040814877 0.583142817020416 -0.0456405952572823 0.36153244972229 -0.734476894140244 -0.300274297595024 -0.988999992609024 -0.479295715689659 -0.2546546459198 -0.189373292028904 0.0231176316738129 0.949713051319122 -0.119135811924934
"asks" 0.263560976833105 0.408179894089699 0.398120045661926 1.41881746053696 0.189395908266306 0.24450645595789 -0.960081316530704 -0.868897125124931 -0.0807470977306366 -0.34432452917099 -0.292252451181412 -0.367970943450928 0.283793911337852 1.20937818288803 0.140520848333836 0.270447283983231 0.22315402328968 -1.04790127277374 0.231252238154411 0.460394293069839 0.500559389591217 0.0195043683052063 0.901711672544479 0.211590051651001 -0.257343467324972 0.215727359056473 0.288160353899002 -0.0803845971822739 0.397330820560455 -0.0825198050588369 -0.566986486315727 -1.12081643939018 0.477715358138084 0.526214936748147 -0.000700913369655609 0.721029803156853 -0.454586882144213 0.275677666068077 -1.646375477314 0.599287420511246 0.0930723324418068 0.632878571748734 -0.616144061088562 -0.359620533883572 -0.276221692562103 0.00228602439165115 0.476133219897747 -0.512509599328041 -0.239100322127342 0.0809909030795097
"crappy" -0.277136042714119 0.178014475852251 0.0654073730111122 -0.0311356782913208 -0.131083309650421 0.259816510602832 0.415294446051121 0.740320891141891 1.36241590976715 0.395044200122356 -0.308446761220694 -0.57554129883647 0.0605806168168783 -0.35120751708746 0.0539611801505089 -0.365298323333263 -0.237661279737949 0.366828009486198 0.335123121738434 0.258586019277573 0.60499694943428 -0.634753435850143 0.163787014782429 0.188375818543136 -0.213352859020233 -0.154434531927109 -0.263351544737816 0.1240274310112 0.442584377713501 -0.999311476945877 0.5016248524189 -0.48321944475174 0.759784191846848 0.897938162088394 0.328974178060889 -0.188499867916107 -0.592925772070885 -0.582130387425423 0.580704480409622 0.299197092652321 -0.0482921004295349 0.282704517245293 -0.0187933146953583 -0.37606405466795 0.373248934745789 -0.164756294339895 -0.620067536830902 -0.305092804133892 0.432137057185173 -0.111095160245895
"moments" -0.0657224655151367 0.383667442947626 0.280116509646177 -0.146546335890889 -0.844792768359184 -0.716967880725861 -0.440479554235935 -0.179518520832062 0.427193280309439 0.274268768727779 0.658555001020432 -0.408312946557999 0.976212874054909 -0.540010452270508 0.540390655398369 -1.10957729816437 -0.0552727282047272 0.3471874371171 -0.0479863882064819 -0.0216147415339947 0.72424241900444 -0.186710294336081 -0.324368134140968 -0.610541924834251 -0.380875460803509 0.645504428073764 -0.874886691570282 -0.0886128321290016 -0.0644136816263199 -0.0426976308226585 0.227836735546589 -0.412224963307381 0.333893982693553 -0.541724475100636 -0.781039178371429 0.114137168973684 0.282674875110388 -0.214970625936985 0.807763770222664 -0.435376010835171 -0.20789609849453 0.296076543629169 -0.0151814818382263 -0.719454288482666 -0.293366987258196 0.668157756328583 0.63169801235199 0.0394850373268127 -0.00600180774927139 -0.452262982726097
"footage" 0.151391075691208 -0.647460013628006 -0.513442369992845 -0.0106490403413773 -0.140067659318447 0.265240535140038 1.19869136810303 0.793330907821655 -0.413286956958473 -0.0351375713944435 0.280336812138557 0.1830152310431 0.155866138637066 -0.93429771065712 -0.0275106667540967 0.0782140865921974 0.0804938822984695 -0.143194854259491 0.209476482123137 -0.130375027656555 0.302936598658562 -0.11167648434639 0.360358826816082 0.631803572177887 0.586020827293396 0.875378906726837 -0.31687031686306 0.387035764753819 0.0798214701935649 0.198680445551872 0.215896099805832 -0.832767993211746 -0.0342602729797363 -0.140648156404495 0.237161055207253 0.0158861316740513 0.569792598485947 0.112663086503744 0.572536557912827 0.58172520250082 0.520705014467239 -0.0493441522121429 0.0183157622814178 1.06250986456871 0.606369726359844 -0.77998811006546 -0.604955643415451 -0.0099053829908371 -0.734800547361374 0.456550993025303
"inspector" 0.627154856920242 -0.383552297949791 0.492101326584816 -0.299052596092224 -0.0745303928852081 0.177173033356667 -0.134563028812408 -0.310947917401791 0.171720206737518 0.323125541210175 0.0826976019889116 -0.654430150985718 -0.2507628723979 1.03379731625319 -0.377150662243366 -0.068189263343811 0.647899493575096 0.0833425652235746 0.0153105556964874 0.503373168408871 -0.623578771948814 0.442512825131416 0.553899005055428 -1.10528928041458 -0.165729999542236 0.156602963805199 1.16746363043785 -0.23550683259964 0.0535585656762123 -0.733664512634277 0.0572058856487274 0.209880435839295 -0.236093498766422 -0.194069292396307 0.964082777500153 0.539486765861511 -0.607488602399826 0.480896443128586 0.247401058673859 1.13883113861084 -0.154534481465816 0.32169209420681 0.511668313294649 -0.0322315786033869 0.761652510613203 0.452504416927695 -0.69591511785984 -1.27144575119019 -0.488220166414976 -0.655714332126081
"tight" -0.188101433217525 -0.174157962203026 -0.0424999743700027 -0.210654273629189 -0.981237560510635 -0.22922632843256 0.219341307878494 -0.163094252347946 0.504019148647785 0.112855441868305 0.726800203323364 -0.615353047847748 0.264410520903766 0.327632188796997 0.34485088288784 -0.272689774632454 0.503099709749222 -0.652005821466446 0.58964791893959 -0.200816362164915 0.0465651452541351 -0.156856242567301 -0.0167125202715397 0.170663567259908 0.141705142334104 0.232284069061279 -0.0898206681013107 -0.912099868059158 0.29674681648612 -0.602505564689636 -0.713406220078468 -0.949605464935303 -0.704900950193405 0.238752380013466 0.248998247087002 -0.19258926436305 -0.39482073392719 0.0612863637506962 -0.328126341104507 0.372833631932735 -0.458636373281479 0.600261360406876 0.420991897583008 -0.782594382762909 0.192650202661753 -0.0686645023524761 -0.249422763939947 0.227613244205713 0.414590954780579 0.0935152769088745
"any" -0.532442655414343 0.973680138587952 -0.402106732130051 0.0735027082264423 0.254067562520504 0.132510855793953 0.399514943361282 1.06723457574844 -0.554897964000702 -0.397974580526352 -0.374990954995155 0.591412380337715 -1.20980608463287 -0.424491107463837 -0.801170647144318 0.334993256255984 -0.722398072481155 0.353133842349052 -0.0347655341029167 -0.254212327301502 0.372322663664818 0.0891680717468262 0.150835702195764 -0.62390323728323 -0.890621274709702 -0.282662139390595 -0.306474477052689 0.290215577930212 -0.724236726760864 -0.4039571210742 -0.241104409098625 0.316750936210155 0.685949206352234 -1.19982206821442 -0.242079302668571 -0.319051280617714 0.673482622951269 -0.543420374393463 -0.752158865332603 -0.124262809753418 1.35386282205582 0.296827958896756 0.156112451804802 -0.041540838778019 -0.411269813776016 -0.334247075021267 0.0739721208810806 0.68729954957962 -0.562853828072548 -0.517378237098455
"did" 0.21274983137846 0.690940871834755 -0.167307525873184 0.0325386002659798 0.364373967051506 -0.089781329035759 -0.0931540280580521 0.03763447701931 0.21233081817627 0.174785636365414 0.0959930047392845 0.525484700221568 0.705961033701897 0.705271542072296 0.617622703313828 -0.153930369764566 0.458491578698158 -0.274301119148731 0.374949470162392 0.419434875249863 0.593774378299713 -0.0197834298014641 -0.18254492431879 0.229362197220325 -0.669211834669113 -0.787953242659569 0.461394369602203 1.24537706375122 0.299258902668953 0.246555212885141 -0.0299883782863617 -0.0680370330810547 0.393912930041552 -0.401061985059641 -0.510736703872681 -0.0433632396161556 0.157076828181744 -0.52570466697216 -0.397581458091736 -0.207607246935368 0.781872034072876 -0.456352461129427 0.029896177817136 0.448086317628622 -0.699081778526306 0.272650122642517 0.945670425891876 -0.0149672031402588 -0.409534640610218 0.471869319677353
"display" 0.0532069094479084 -0.781495571136475 -0.251189347356558 -0.796018838882446 -0.202433109283447 0.189612196758389 -0.0443551540374756 0.585332706570625 0.374549973756075 -0.659377902746201 0.0630021821707487 0.0985184460878372 0.545478269457817 -0.427818596363068 -0.452360780909657 -0.0367857217788696 -0.0716099962592125 -0.317389369010925 0.148716539144516 0.0178762823343277 -0.879616916179657 -0.00521702319383621 0.210713461041451 0.754550918936729 -0.100421480834484 0.226291254162788 -0.141400843858719 0.595651000738144 0.644672691822052 -0.867494374513626 0.430404469370842 -0.83828017115593 -0.974242806434631 0.464482113718987 -0.955943316221237 -0.669391884468496 -0.532285615801811 -0.0777167687192559 -0.167111778631806 0.36152395606041 -0.0554213747382164 -0.0741641670465469 0.314335286617279 -0.8728386759758 0.360752314329147 -0.198314100503922 0.131789997220039 0.356701225042343 0.153557423502207 0.22727419808507
"dan" -0.0621340572834015 -0.0170018747448921 -0.27988110948354 0.942295461893082 -0.107728738337755 0.13799349591136 -1.05879944562912 0.0951736643910408 -0.256693989038467 -0.133081667125225 -0.144686132669449 -0.236410815268755 -0.240703694522381 -0.00132973492145538 -0.566911198198795 0.655201122164726 0.250691693276167 -0.426915179938078 -0.0311278589069843 0.414582163095474 -0.0927272364497185 -0.0946977958083153 0.0890184156596661 -0.235109254717827 -0.367404659278691 0.830075085163116 -0.19749940186739 -1.14184373617172 0.511000618338585 0.0928682368248701 -0.381314903497696 -0.805817782878876 -0.331935688853264 0.229702025651932 -0.104165400378406 -0.0600952506065369 0.0950028318911791 0.655742198228836 -0.507421627640724 0.427361913025379 0.478204403072596 0.0639543533325195 -0.31006133556366 0.206792585551739 0.911115646362305 -0.856642037630081 0.270526970736682 -0.0117225311696529 -0.421526297926903 0.12292823754251
"charisma" 0.822830975055695 0.350761037319899 -0.032625375315547 0.53659887611866 -0.444910630583763 0.0383289754390717 -0.0140437632799149 0.0558819621801376 0.165287725627422 -0.136342260986567 -0.148353211581707 -0.793715238571167 -0.208285704255104 1.29820966720581 -0.750830888748169 -0.571101598441601 -0.691216379404068 0.216721400618553 0.544854445382953 -0.476860865950584 -0.388190317898989 -0.403943113982677 -0.532428115606308 0.717406123876572 -0.0250832140445709 0.633923806250095 -0.791478395462036 0.282642662525177 -0.0367700755596161 -0.464159652590752 0.0761043131351471 0.153194658458233 -0.603016585111618 0.484216269105673 -0.583345174789429 -0.269714772701263 -0.133088544011116 0.015211433172226 -0.129922870546579 0.624300479888916 -0.744612485170364 -0.376993622630835 0.0395856201648712 -0.721157550811768 0.547226935625076 -0.302158996462822 -0.348981186747551 0.464605651795864 0.511599123477936 0.765656709671021
"fairy" -0.000496536493301392 0.410814329981804 0.350984811782837 0.120361715555191 0.961236983537674 0.661015465855598 -0.536458315560594 -0.386125199496746 -0.122268348932266 -0.0894219577312469 -0.705678939819336 -0.409487556666136 -0.446699868887663 -0.0462237298488617 0.315877430140972 -0.514983326196671 -0.530561506748199 0.66695536673069 -0.240037500858307 0.466749189421535 -0.279273465275764 0.184986501932144 0.755671411752701 0.424833435565233 0.649216860532761 0.100637164898217 -0.306415498256683 -0.275833763182163 -0.498843342065811 0.162666976451874 0.592353224754333 0.0523642357438803 -0.101249799132347 0.473245695233345 -0.315597459673882 0.282137364149094 -0.165816491469741 0.0588189214468002 0.387127280235291 1.1394274532795 -0.137650415301323 0.232981532812119 -0.11264868080616 -0.0775469383224845 0.605388671159744 -0.728731080889702 -1.05402573943138 -0.600375816226006 -0.319828785955906 0.295479729771614
"hitting" -0.0182516276836395 -1.25179839134216 0.418349709361792 -0.618193283677101 -0.422809287905693 -0.639611393213272 0.536025330424309 -0.218397222459316 -0.234106816351414 -0.149507828056812 0.871028214693069 -0.666226401925087 0.340224005281925 -0.0282500088214874 -0.441422559320927 0.66651925444603 -0.0556381195783615 0.00648188591003418 0.203357391059399 0.252916574478149 -0.264330692589283 -0.653576195240021 -0.239036563783884 0.288078479468822 -0.0525007769465446 -0.0785424560308456 0.466803551651537 -0.142881877720356 0.636012017726898 0.000694461166858673 -0.227039478719234 -0.721391230821609 -0.480261428281665 0.995771914720535 0.541798807680607 -0.226487971842289 -0.219383403658867 0.15331594273448 -0.143549695611 -0.152382284402847 0.250640753656626 -0.215255292132497 -0.284606568515301 -0.401057720184326 0.737824678421021 -1.36298376321793 -0.373815625905991 -0.0440838076174259 -0.108502648770809 0.148735463619232
"shadow" -0.366080582141876 -0.176156878471375 -0.562694199383259 0.294728077948093 -0.0167355611920357 -0.644884765148163 -0.0573470890522003 -0.0520385727286339 0.108946286141872 0.1435736566782 0.175400476902723 -1.00431603193283 0.69457933306694 0.239735312759876 -0.684693936258554 -0.518785446882248 0.374822293408215 -0.145258379168808 0.65228895843029 -0.497012307867408 -1.53269404172897 -0.812421292066574 0.576913431286812 0.535733057186007 0.0555204823613167 -0.363782046362758 -0.304955769330263 0.108451507985592 -0.115362018346786 -0.75775320827961 0.288141787052155 -0.622657038271427 -0.781087890267372 0.753361940383911 0.188273973762989 0.448275253176689 0.218942817300558 -0.090053603053093 -0.249597035348415 0.773110240697861 0.341228932142258 0.922741204500198 0.259751349687576 0.366895072162151 0.616170346736908 -0.882104098796844 -0.802459865808487 -0.5837342441082 0.38856515288353 0.675261437892914
"soul" -0.554509952664375 -0.162144919857383 -0.296713322401047 0.491720855236053 -0.180318176746368 -0.135134398937225 -0.13509956933558 -0.104960594326258 -0.150566175580025 0.118147075176239 -0.436580494046211 0.204990714788437 -0.884095817804337 0.254064008593559 -0.937969356775284 0.646471381187439 -0.425712637603283 -0.313283324241638 0.534276470541954 -0.696384221315384 0.0768916606903076 0.0973490029573441 -0.432744145393372 0.345591396093369 0.552102312445641 -0.0341671109199524 -0.258467227220535 -0.451916322112083 -0.546615667641163 0.0280731990933418 0.00196104496717453 0.0419233441352844 -0.862736314535141 0.362834252417088 0.194595179986209 -0.0697660632431507 0.230303555727005 -0.284529164433479 -0.783442735671997 0.192663937807083 -0.788053691387177 -0.383303225040436 -0.165565505623817 0.360839247703552 -0.00642545474693179 0.362742964178324 0.0376460999250412 -1.12497538328171 0.755246996879578 0.10095789283514
"network" -0.0454201549291611 0.369944356381893 -0.138895342126489 -0.965101271867752 -0.54826045781374 -0.0597899816930294 0.200241886079311 0.830459430813789 0.491432085633278 -0.0005296990275383 0.568358242511749 -0.661796577274799 -0.125820074230433 0.208983048796654 0.231787009164691 0.0799212455749512 0.112852271646261 -1.16506454348564 -0.110623750835657 -0.289874866604805 -1.10383081436157 -0.35376987606287 -0.0527738109230995 0.610034484416246 0.110965549945831 0.18047297373414 -0.323487088084221 -0.283978678286076 0.223143517971039 -1.06112176179886 0.095695823431015 -0.86728572845459 -0.411052376031876 0.27216075360775 -0.534011140465736 0.340621780604124 -0.0351240746676922 -0.336603045463562 -0.229277074337006 -0.160318270325661 -0.24967922270298 0.263291873037815 0.331896781921387 -0.0723464787006378 0.184301987290382 0.500640690326691 -0.703751593828201 0.205450031906366 0.774918586015701 0.215066760778427
"behavior" -0.146888986229897 -0.524196609854698 0.0865055099129677 -0.152157753705978 -0.393653765320778 -0.0872482284903526 0.105197474360466 -0.760636955499649 -0.0513683892786503 0.0504015982151031 -0.237812727689743 -0.633723616600037 0.103096388280392 -0.416145622730255 -0.590211853384972 -0.0943361222743988 -0.32850806415081 -0.269342474639416 0.633342243731022 -0.0552507340908051 0.0392318768426776 -0.556938208639622 -1.03998494148254 -0.0705268085002899 0.147819653153419 0.396622076630592 -0.935119897127151 0.126518808305264 0.492036446928978 0.149607764557004 0.434851452708244 -0.274364463984966 -0.617120862007141 -0.346097908914089 0.491967856884003 0.268723491579294 -0.0323615074157715 0.196996405720711 -0.140793047845364 0.140178270637989 0.529096387326717 -0.142642389982939 -0.0806539044715464 0.196837529540062 0.11549611389637 -0.389376312494278 -0.318280458450317 -0.77777336537838 0.487420246005058 -0.733645439147949
"spends" -0.171487275511026 -0.787769809365273 0.217633292078972 -0.618250926956534 -0.755016356706619 0.594344884157181 0.318956907838583 0.287069708108902 0.157258003950119 0.0624321699142456 0.557792343199253 -0.144564032554626 0.19884404540062 -0.519492536783218 -0.818922281265259 0.602065276354551 0.184401541948318 0.100431540980935 0.688628926873207 0.590308025479317 -1.38294851779938 0.37608902156353 0.220573902130127 -0.497445598244667 0.620010033249855 -0.995180666446686 -0.55939769744873 -0.316649533808231 -0.0373196750879288 -0.84595999121666 -0.69879923760891 -0.144460558891296 -0.60245743393898 -0.218487270176411 0.0601964890956879 0.122609175741673 -0.812607496976852 0.146728746592999 -0.579107671976089 0.516972497105598 0.496949777007103 -0.675707623362541 0.230112249264494 0.521463483572006 1.28380718827248 -0.0387696400284767 0.638549670577049 0.22462672740221 -0.796050101518631 -1.16919040679932
"warming" -0.456450305879116 -0.299823120236397 0.155514634214342 -0.283869594335556 0.378628365695477 0.0469213351607323 0.353550687432289 -0.793225407600403 0.789215594530106 0.699624881148338 -0.125326916575432 0.580165863037109 -0.498188368976116 -0.225961238145828 -0.869261637330055 0.416779428720474 -0.609935611486435 1.13912707567215 0.0595688596367836 -0.167519435286522 0.136735677719116 0.0202633813023567 0.395833923481405 0.342338360846043 0.114698341116309 0.455147638916969 -0.0564113855361938 -0.528147183358669 -0.467271983623505 0.0929028540849686 -0.463856093585491 -0.232391722500324 -0.220272451639175 0.15468755364418 0.228029899299145 0.03795525431633 -1.28886723518372 -0.843822032213211 -0.505587339401245 0.44620855897665 -0.332593023777008 0.311543688178062 -0.0545718669891357 -0.778607512824237 -0.638379544019699 0.770944058895111 -0.900814220309258 -1.04689979553223 1.0733907520771 -0.24149601534009
"painful" -0.0261356681585312 -0.928639650344849 0.289447329938412 0.403471931815147 0.0459012035280466 -0.470589093863964 0.710892468690872 -0.120107524096966 1.18235093355179 0.200775802135468 0.334470059722662 0.19147730525583 0.213631503283978 -1.18157577514648 0.15477392822504 -0.262183547019958 -0.0930035896599293 0.210232630372047 0.311124205589294 0.00448875688016415 -0.0374182537198067 -0.00597041845321655 -0.258626885712147 0.15277361869812 -0.521571539342403 -0.387981280684471 0.0487101916223764 -0.0601289048790932 0.584521546959877 1.04407060146332 0.289313390851021 -0.351810727268457 -0.10807641595602 -0.298539318144321 0.42910929210484 0.643451154232025 -0.438802182674408 1.23824566602707 0.445467010140419 0.514115940779448 -0.392441859468818 0.651942651718855 -0.0923587745055556 -0.248459182679653 0.112987816333771 0.152156905271113 0.0908940024673939 -0.229906842112541 0.0251697227358818 -0.396647730842233
"together" 0.843671828508377 0.210495624691248 0.449340398656204 -0.63895945250988 0.00789298117160797 -0.0401789955794811 0.644934430718422 0.975356221199036 -0.0569383958354592 -0.0015287846326828 -0.0697560012340546 0.125868961215019 0.945077955722809 0.144301131367683 0.550338715314865 -0.312611551955342 -0.261788624804467 -0.193066775798798 -0.452100265771151 0.309363335371017 0.301628835499287 0.368278950452805 -0.202247187495232 -0.0383276492357254 -0.331903129816055 0.828118234872818 0.479482560418546 0.595849014818668 0.201050460338593 0.0618369951844215 -0.683150917291641 0.0127520710229874 -0.459833770990372 0.00146106071770191 0.0936840595677495 -0.0443434119224548 0.550577521324158 0.326980136334896 -0.639702916145325 -0.761345833539963 -0.0581092005595565 -0.225362651050091 -0.500742018222809 0.809130549430847 -0.196628376841545 0.157604306936264 -0.340237224474549 0.00593437254428864 0.441936329007149 -0.629247516393661
"charles" 0.0733544528484344 -0.737730920314789 0.548291146755219 0.598701372742653 -0.259815469384193 0.925021439790726 0.051843672990799 -0.48122538626194 -0.132404208183289 0.62739060819149 -0.254188545048237 -0.486907251179218 0.0404446795582771 0.318390563130379 0.210204437375069 0.661323726177216 -0.319637276232243 0.286431632936001 0.950425922870636 0.500120334327221 -0.549294070806354 -0.432147040963173 -0.123049040397746 0.585834711790085 0.0222316980361938 0.476772896945477 0.203926049172878 -0.339700154960155 -0.0664020422846079 -0.510230466723442 -0.545320451259613 -0.720692366361618 -0.588422924280167 0.335171660408378 0.569118797779083 -0.252022139728069 0.354645065963268 0.0481346873566508 0.11750915646553 -0.0373790953308344 -0.163880042731762 0.436745392158628 -0.0372483283281326 -0.693822532892227 0.315443590283394 0.513317495584488 0.53069905936718 -0.55295641720295 -0.226968454197049 -0.324227463454008
"ironic" 0.0542367585003376 0.085106398910284 -0.277291320264339 0.325780883431435 -0.846374794840813 -0.217097505927086 -0.16158239543438 -0.36247831210494 0.208964549005032 0.395803555846214 0.547239407896996 -0.555180065333843 0.137443385785446 0.308268532156944 -0.153836846351624 -0.361598581075668 0.851579606533051 -0.527264028787613 0.255435585975647 0.00912474095821381 -0.562050953507423 -0.636490315198898 0.390798017382622 -0.179266819730401 0.746949031949043 -0.0164335519075394 -0.119801074266434 -0.401336401700974 -0.632028788328171 -0.0566931217908859 0.959961533546448 -0.293687772005796 0.36548138782382 -0.350532650947571 -0.0304673239588737 -0.163426578044891 -0.736931368708611 0.2494827657938 -0.198930647224188 0.398049339652061 0.476576969027519 0.302470035851002 0.346521839499474 -0.229617103934288 -0.674873441457748 0.445327699184418 -0.514153569936752 -0.719780951738358 1.04538530111313 -0.349615999730304
"voices" -0.0152648836374283 0.117365565150976 -0.143651687540114 -0.010277746245265 -0.194617256522179 -0.145282920682803 0.502821281552315 -0.04544897377491 -0.0381925106048584 0.148086280561984 -0.0190128311514854 0.280715003609657 0.102292347699404 0.145033836364746 -1.11669600009918 -0.878808915615082 0.581690728664398 -0.536392796784639 0.0442837588489056 0.143225729465485 -0.0879157856106758 -0.610311806201935 0.536528468132019 0.0416828840970993 0.541953593492508 0.736521124839783 -0.23624063283205 0.104404348880053 0.39448718726635 -0.0983934914693236 0.446445062756538 -0.0265261232852936 -0.02217797935009 0.396417478099465 0.0888699442148209 -0.504218965768814 -0.267265481874347 -0.482231520116329 -0.845403641462326 0.231176659464836 -0.423503994941711 0.0161740481853485 -0.979686126112938 0.246104821562767 1.28239387273788 0.283816237002611 -0.453704670071602 -0.65626004897058 -0.282714396715164 0.188237100839615
"prime" -1.11803859472275 -1.49954092502594 -0.587882816791534 0.0969610475003719 -0.237047843635082 -0.433525986969471 0.58137546479702 -0.130666545126587 0.553116291761398 0.000867635011672974 0.277541570365429 -0.173213750123978 0.597568247467279 -0.160862517077476 -1.04287937283516 -0.52183410525322 -0.148871973156929 -0.44523224234581 0.388811066746712 -0.224344536662102 -1.16391450166702 0.203934952616692 0.322163581848145 -0.191540837287903 0.274720571935177 0.32101259380579 0.00133717060089111 -0.342714156955481 0.124000176787376 -0.373083237558603 -0.521833688020706 0.943101048469543 -0.492040239274502 -0.189093217253685 -0.540331229567528 -0.465759098529816 -1.19818592071533 0.517121717333794 -0.684501715004444 -0.154031953774393 0.179289381951094 0.287312120199203 0.597217291593552 -0.525414794683456 0.00283864140510559 0.398517027497292 0.231400033459067 0.278790766373277 -0.437890619039536 -0.0232236236333847
"familiar" -0.344544433057308 0.575994849205017 0.0383240878582001 -0.15893992036581 -0.184873327612877 0.597348496317863 0.9424769282341 -0.699663773179054 -0.598861031234264 -0.525394842028618 -0.349526166915894 0.29497517645359 0.545075565576553 0.0349800456315279 -0.00706234574317932 -0.754468336701393 0.273511603474617 0.181672051548958 0.214188126847148 -0.414047911763191 0.289522483944893 -0.706185281276703 -0.639141440391541 1.22917783260345 -0.24347310513258 -1.07972878217697 0.33560736477375 0.0694561433047056 -0.0630589816719294 -0.0473777949810028 0.0427433550357819 -0.441056251525879 -0.353806458413601 -0.531367838382721 0.70654022693634 -0.990733444690704 0.0772963538765907 -0.0670225545763969 0.238683391362429 0.297687262296677 0.33951273560524 -0.242265820503235 -0.548893824219704 -0.496130764484406 0.770373433828354 -0.283790551126003 -0.558348283171654 0.127416053786874 0.369486617855728 -0.901168286800385
"trip" -0.117376148700714 -0.116367164999247 -0.547621414065361 0.152202356606722 0.380230665206909 -0.0400600135326385 0.556011408567429 0.249014489352703 -0.181857421994209 -0.305631309747696 -0.163775416091084 -0.424419462680817 -0.998372495174408 0.156989932060242 0.817707031965256 -0.145239185541868 -0.779317438602448 0.0786340609192848 0.155852627009153 0.242138899862766 -0.104371756315231 -0.315886281430721 -0.232881385833025 0.324094675946981 -0.717283204197884 -0.481945693492889 1.23682165145874 0.180210107937455 -0.253375619649887 -0.206956136971712 0.229236502200365 -0.261241227388382 -1.53428590297699 0.821347802877426 -0.637089863419533 0.484438121318817 0.404578570276499 0.00783001445233822 0.806059628725052 0.484954424202442 -0.574235886335373 1.00146248936653 0.172780022025108 -0.53763473033905 0.361769750714302 -0.682801008224487 -0.73750165104866 0.43105685710907 0.558645501732826 0.0140167027711868
"overall" -0.301505446434021 1.11984145641327 -0.0891301184892654 -0.147707343101501 0.804656565189362 -0.502975024282932 0.707306623458862 0.470503002405167 0.292151756584644 0.680625528097153 0.743683278560638 0.436355538666248 0.146400821395218 -0.702427446842194 0.276187656447291 -0.501248836517334 0.621795058250427 0.459815202280879 0.0212500542402267 -0.378500491380692 -0.0251584127545357 -0.124545305967331 -0.155865386128426 0.101282915100455 0.698225378990173 0.0208154991269112 -0.115930289030075 -0.178753420710564 0.5785923153162 0.358533918857574 -0.557130977511406 0.381265431642532 -0.314543977379799 -1.03650194406509 -0.00756556168198586 -0.765380322933197 0.194341398775578 -0.357675425708294 0.0376569330692291 0.106836065649986 -0.0967891663312912 0.103006601333618 -0.275038525462151 0.633065357804298 -0.712619110941887 0.0821140184998512 -0.386150538921356 -0.700441420078278 0.160785414278507 0.500908575952053
"stays" -0.239240154623985 0.505618989467621 -0.0325155109167099 0.190079182386398 -0.090564914047718 0.348888128995895 0.334382295608521 0.353426011279225 -0.4461600035429 -0.0405494719743729 0.670334428548813 -0.396606989204884 -0.270528633147478 -0.340861923992634 0.00107419490814209 0.89967343211174 0.422817215323448 -1.44395869970322 0.0241554584354162 0.0926062613725662 -0.175549793988466 -0.15137380361557 -0.285362094640732 0.74965800344944 0.939904600381851 -0.0126497447490692 -0.393719762563705 0.382083773612976 0.405122965574265 1.03870639204979 0.300702150911093 -1.07300704717636 -0.595547467470169 -0.252259852364659 0.787228912115097 -0.73090335726738 0.0937859378755093 0.326331794261932 -0.15713232010603 0.0620707422494888 0.110025629401207 -0.526187613606453 -0.7127695530653 -0.737802490592003 0.502028658986092 -0.697525225579739 -0.991521120071411 -0.678825795650482 0.279213599860668 0.371809378266335
"revolves" 0.0478591569699347 0.227090895175934 -0.621199622750282 1.14311176538467 0.476072408258915 0.0892091989517212 0.76714051514864 1.00021523237228 0.232582442462444 0.797213912010193 0.931873574852943 -0.38851260393858 -0.0248154550790787 0.44032521918416 0.416803427040577 0.408396124839783 0.260528862476349 0.671251028776169 0.406502522528172 -0.102866053581238 -1.06242829561234 -0.488794647157192 1.01424571871758 -1.07928237318993 -0.0747469365596771 0.459814950823784 0.578967329114676 -0.682946681976318 -0.35153791308403 1.05304947495461 -0.630120777525008 -0.161689475178719 0.718432083725929 0.497241094708443 0.677968591451645 -1.00417600572109 -0.489826411008835 0.187588453292847 0.72083905339241 -0.471193909645081 -0.215973876416683 1.2615323215723 0.0133480131626129 0.0301460921764374 0.801699683070183 -0.89887448772788 -0.423558339476585 0.125693771056831 1.03533047437668 0.0951270312070847
"drag" -0.0761718302965164 -0.367454297840595 -0.411804109811783 0.382377501577139 -0.306505888700485 -0.216400295495987 0.316726706922054 0.2960901921615 0.436311636120081 -0.0204331576824188 0.45881262421608 -0.139871634542942 0.331798300147057 -0.0047881007194519 0.473102614283562 0.0498975366353989 0.462180219590664 -1.07367539405823 -0.437107961624861 0.492668807506561 -0.251787170767784 -0.06785649061203 0.3583914488554 0.221292294561863 -0.256387144327164 0.153310269117355 -0.171518409624696 -0.275206316262484 1.13147622346878 -0.347643135813996 0.234093993902206 -0.595817923545837 -0.900346398353577 0.883683890104294 -0.585718110203743 -0.188754938542843 -0.00945180654525757 0.207116250880063 0.467819530516863 0.200608640909195 -0.0219969004392624 -0.0672616213560104 -0.124260321259499 -0.316709376871586 0.132519915699959 -0.420284546911716 0.0494177043437958 0.895291179418564 0.452675819396973 0.379584079608321
"stylish" 0.085140248760581 -0.451715849339962 0.819247245788574 0.0879063606262207 -0.78251987695694 0.168082693591714 0.50166143476963 -0.0805917121469975 0.413454055786133 0.255693253129721 0.417877055704594 -0.189747661352158 -0.418450266122818 -0.689320206642151 -0.389242403209209 -0.692592591047287 0.327622786164284 0.638914927840233 -0.100572392344475 -0.0899343900382519 -0.322246137075126 -0.195603400468826 -0.0560929402709007 -0.316939353942871 0.601829215884209 -0.158978789113462 -0.303723827004433 -0.722013741731644 -0.524062886834145 -0.331984732300043 0.434870056807995 0.276405677199364 0.109879285097122 0.373530719429255 -0.00744228065013885 -0.439377352595329 -0.121074058115482 0.209739782381803 0.351423844695091 0.778604608029127 -0.543983280658722 0.270131068304181 -0.138740412890911 -0.647575750946999 0.361950591206551 0.16101807821542 -0.0793369580060244 0.267513729631901 0.174775198101997 0.206054093316197
"occasionally" 0.363083735108376 -0.107370376586914 0.0825661420822144 0.35682438313961 -0.478352922946215 -0.294844023883343 0.119821190834045 0.0615524221211672 0.132447052747011 -0.0695038177073002 0.209309041500092 -0.171504391357303 -0.0585888521745801 -0.214851837605238 -0.494622319936752 0.28008545935154 0.624690473079681 -0.325729697942734 -0.00719356536865234 -0.0966145694255829 0.145584441721439 0.165969614870846 0.138532847166061 0.262877352535725 0.629272148013115 -0.195172430947423 0.462087547406554 -0.82722695171833 0.260670088231564 0.171779170632362 1.02609610557556 -0.47117780148983 -0.304006412625313 -0.012263510376215 -0.136334216222167 -0.146205931901932 0.0205460488796234 0.228600753471255 -0.0547250136733055 -0.128621991723776 -0.43444649130106 0.413503706455231 -0.584489017724991 -0.0767084918916225 0.652120381593704 0.332948677241802 -0.180105678737164 -0.0809792540967464 0.281591594219208 -0.170727409422398
"jail" -0.462781175971031 0.0106279850006104 0.34520467557013 0.873565584421158 0.213890492916107 0.268426109105349 -0.272735882550478 0.712817996740341 -0.244079500436783 0.0224856734275818 -0.200005784630775 -0.481734812259674 0.491957940161228 -0.586544159799814 -0.549454867839813 -0.369433403015137 -0.43016966432333 -0.733267322182655 0.326362326741219 -0.122353121638298 -0.159614711999893 -0.424289301037788 0.556790605187416 -0.0389494076371193 0.0947272032499313 0.44057272747159 0.599581629037857 -0.135585721582174 -0.0256777554750443 -0.0314759314060211 -0.719500791281462 -0.84428109228611 0.310832746326923 0.225720394402742 -0.281031727790833 -0.0919099021703005 -0.476819321513176 0.0876712650060654 -0.872116237878799 0.366198629140854 -0.297489982098341 0.621723442338407 -0.56367102265358 -0.0742935761809349 -0.258441314101219 -0.97346918284893 -0.400657802820206 0.749409407377243 0.677986234426498 0.111295610666275
"joey" -0.379279285669327 -0.0752599462866783 0.818059265613556 -0.288927868008614 0.903838366270065 0.657400131225586 -0.377730540931225 -0.920702397823334 -0.369552403688431 0.394630409777164 -0.642591506242752 -0.783115893602371 -0.417402304708958 0.78566387295723 -0.353412918746471 0.264012567698956 0.0287071913480759 0.151643428951502 -0.186612337827682 0.318461398448562 0.230520218610764 0.0820157155394554 0.381102412939072 0.494536057114601 0.0226214453577995 1.11823332309723 0.247792899608612 -0.633319690823555 -0.209875948727131 -0.355849638581276 0.399808786809444 0.0599344857037067 -0.248239427804947 0.118376390077174 -0.309516966342926 -0.0989239737391472 -0.393608674407005 -0.0716035887598991 -0.15079603344202 0.608164221048355 -0.276330590248108 0.315876260399818 -0.444849450141191 -0.287016734480858 0.484435126185417 0.105913326144218 -0.481380946934223 -0.267190530896187 0.829518705606461 -0.630859375
"divorce" -0.0720895901322365 -0.273616850376129 0.0357377156615257 -0.122596450382844 0.508747547864914 0.115511618554592 -0.213309228420258 0.0257807970046997 -0.108120054006577 0.203862845897675 -0.6090067923069 -0.525978982448578 0.304901892319322 0.314343571662903 -0.153505265712738 0.722866773605347 0.351693242788315 0.429915070533752 -0.0396096557378769 -0.262907922267914 -0.560898184776306 0.496893867850304 0.458890050649643 -0.150088056921959 0.292603757232428 1.06144014000893 -0.64987875521183 0.072959378361702 -0.125845909118652 -0.369704857468605 0.197817008942366 -0.194641035050154 -0.440160550177097 0.632911555469036 -0.529123187065125 -0.224957976490259 -0.537942923605442 0.571957230567932 0.176023988751695 1.00937342643738 0.176132507622242 -0.259506121277809 -0.407046649605036 -0.521156921982765 -0.161069832742214 0.0763536095619202 -0.172422826290131 -0.222652547061443 -0.159827060997486 -0.285767108201981
"thrills" -0.0845353603363037 0.436181165277958 0.54850372672081 0.793546989560127 -0.391638666391373 0.438335776329041 -0.459889590740204 0.118326453492045 1.07839572429657 -0.446013309061527 0.757614195346832 -0.720156490802765 0.0510634779930115 0.510734375566244 -0.332861594855785 -1.1853551864624 0.573104277253151 -0.0751738175749779 0.0918298102915287 0.220770247280598 0.75539068877697 0.0105036944150925 0.298281833529472 -0.593015015125275 0.238962586969137 0.807766109704971 -0.364155046641827 -0.835905447602272 0.112463757395744 -0.13400861993432 0.0555769950151443 -0.480057924985886 0.0216038972139359 -0.206964108219836 0.341258324682713 -0.399164944887161 0.0914459303021431 -0.197090424597263 0.205090776085854 0.458506368100643 -1.08691489696503 0.206120094400831 -0.329354397952557 -0.477083042263985 0.0403503626585007 -0.223209738731384 -0.00382749363780022 -0.54392796754837 0.0534313633106649 0.0131193247507326
"advantage" 0.122229129076004 -0.105008840560913 -0.410506941378117 -0.135756969451904 0.342070821672678 0.201859718188643 0.411234363913536 0.121293932199478 0.863245844841003 0.610264956951141 0.279757082462311 0.318865112960339 -0.998517274856567 0.181453090161085 -0.699552983045578 0.45142382197082 -0.060382355004549 0.133791133761406 0.0346765667200089 0.201540231704712 -1.25445050001144 -0.101073183119297 -0.517137557268143 0.212185889482498 -0.159894185140729 0.25779459066689 -0.322642400860786 0.508029390126467 -0.482637450098991 -0.621237590909004 -1.14529958367348 -0.13868835568428 -0.164106540381908 0.527310475707054 -0.720827162265778 -0.68167844414711 -0.867421805858612 -0.365284064318985 -0.414972126483917 -0.456701546674594 -0.590112745761871 -0.173536971211433 -0.106623351573944 -0.482955083250999 0.0847000414505601 0.255960371345282 0.383758634328842 0.81982559710741 0.485011368989944 -0.636445358395576
"caught" 0.000200178474187851 -0.529501534998417 0.275990454480052 -0.347628854215145 -0.358512908220291 0.330433573573828 -0.931793719530106 0.648445770144463 -0.675418853759766 -0.420977808535099 0.573157414793968 0.378730616532266 0.316544935107231 -0.264347277581692 -0.0254631079733372 0.347245186567307 0.0581138925626874 -0.894715592265129 -0.633346006274223 -0.261777311563492 0.115257501602173 0.048462763428688 -0.465463183820248 -0.782527834177017 0.357024326920509 0.15863087400794 0.585085272789001 -0.682368397712708 -0.636613517999649 0.321789085865021 -0.935188978910446 0.108894273638725 -0.397100776433945 0.363961435854435 1.1390828192234 0.0318315327167511 -0.410234332084656 0.609489604830742 -0.82215490937233 -0.444333091378212 -0.109535858035088 -0.16405913233757 0.43315323186107 -0.441926002502441 -0.290717288851738 -0.298729121685028 0.178391970694065 0.367468729615211 0.593559265136719 -0.171074478887022
"storm" 0.829249411821365 0.149867910891771 0.833632618188858 0.0463889921084046 -0.17804092913866 -0.356033362448215 -0.129905613139272 0.331024441868067 -0.0281712152063847 0.66646833717823 0.0411781221628189 -0.40247043967247 -0.277072076685727 -0.0910142287611961 -0.00812330842018127 -0.632467567920685 0.882560938596725 -0.670253694057465 0.338809803128242 -0.281661711633205 -0.128018639981747 -0.0544180870056152 0.00687010958790779 0.238465487957001 -0.459380298852921 0.572095304727554 0.226258382201195 0.0770650394260883 -0.614624917507172 0.0684427171945572 -0.418439656496048 0.220136947929859 -0.45764684677124 0.7455994784832 -0.48263294249773 0.205198645591736 -0.268233299255371 0.476468212902546 0.100211940705776 0.692663550376892 -0.468640051083639 0.934560805559158 0.0509588420391083 -0.443479046225548 -0.243282109498978 -0.0420325864106417 -0.533418253064156 0.326492180116475 -0.0359159670770168 0.531743168830872
"hatred" -0.368314936757088 -0.348993055522442 -0.176273979246616 0.47383625805378 -0.373635361902416 -0.122382894158363 -0.0867284685373306 -0.146959228441119 0.396428249776363 -0.102428585290909 0.140862751752138 -0.368322849273682 -0.0403802134096622 0.00692127645015717 -0.812318682670593 0.0956861078739166 0.0276453495025635 0.337173908948898 -0.0217684209346771 -0.330727607011795 -0.2037715499755 -0.607792032707948 -0.107183609157801 -0.144524075789377 0.275787688791752 -0.277873575687408 -0.891592428088188 -0.0941775869578123 -0.262042939662933 0.183356840163469 -0.438675239682198 -0.143202934414148 -0.650741532444954 0.868098556995392 0.412921294569969 -0.508570477366447 -0.430665552616119 0.151639372110367 -0.549814000725746 0.583423286676407 0.0332929342985153 -0.289441868662834 -1.32157701253891 -0.447458386421204 0.889280334115028 -0.600078284740448 0.206225425004959 -0.230383783578873 0.502157792448997 -0.7748863697052
"language" 0.213910333812237 0.590981885790825 0.407441375777125 -0.641156151890755 -0.35385774821043 -0.1265091560781 0.457971155643463 -0.583486400544643 -0.310266710817814 0.0183221697807312 -0.269369252026081 -0.385632229968905 -1.54992496967316 -0.689423829317093 -0.357723027467728 -0.497275218367577 0.0282940492033958 -0.266184598207474 -0.20665679872036 -0.324349634349346 -0.338904023170471 0.906967759132385 -0.334094509482384 0.502771146595478 0.224169187247753 0.77818164229393 -0.389172200113535 -0.745211124420166 -0.539101019501686 -0.0238293595612049 -0.0197322443127632 0.503758639097214 -0.236118502914906 -0.620135143399239 0.14792001619935 0.119228959083557 0.752539321780205 -0.073499845340848 0.471345748752356 -0.106312304735184 -0.622882813215256 0.51572241820395 0.710353851318359 0.398242846131325 0.360384721308947 -0.0383680984377861 -0.469390198588371 -0.104350566864014 -0.109408549964428 0.287254333496094
"returns" 0.572757661342621 -0.524597220122814 -0.120626464486122 1.00123190879822 0.167091824114323 0.88555434346199 0.238025486469269 -0.691524475812912 -0.190503686666489 0.309890940785408 0.0517208576202393 -0.679411858320236 -0.507940053939819 0.027230978012085 0.515674356371164 0.682918429374695 -0.648475386202335 -0.766246914863586 0.186793178319931 0.682876855134964 0.495904386043549 -0.0526307821273804 -0.533902049064636 -0.257598094642162 -0.572796747088432 0.433941841125488 0.453464210033417 -0.223659805953503 0.681392833590508 -0.0578037314116955 0.352318286895752 -0.463353410363197 -0.0152572393417358 0.134042751044035 -0.649036169052124 0.445080682635307 -0.32289345562458 0.650173425674438 0.715850919485092 0.346477322280407 -0.937195479869843 -0.0400179177522659 -0.163609087467194 -0.415634959936142 0.116554394364357 -0.0426212400197983 -0.165913542732596 -0.451192647218704 -0.382803082466125 0.347836136817932
"productions" 0.408643513917923 -0.137601096183062 0.0812131259590387 0.498275846242905 -0.157780259847641 0.158004410564899 -0.537879154086113 0.206155625171959 0.616758406162262 0.0147037729620934 0.434820793569088 -0.701178401708603 0.438003867864609 -0.597069084644318 -0.427397876977921 -0.0195388235151768 0.646659284830093 -0.558956876397133 0.341983273625374 0.59415952116251 -0.353460384532809 -0.283716082572937 0.438905842602253 0.0394044071435928 1.0149759054184 0.570572644472122 0.108361639082432 0.0102455019950867 -0.183285303413868 -0.935101240873337 -0.276474043726921 -0.598455116152763 0.648828446865082 0.785758502781391 -0.408214762806892 0.254468647763133 -0.152498005423695 0.0298435091972351 0.346542984247208 0.36324854195118 0.109879225492477 -0.1831213417463 -0.329042001161724 0.548608690500259 -0.558881148695946 -0.479536116123199 -0.81688716262579 0.148239098489285 0.111730590462685 -0.319430619478226
"luke" -0.394735583569854 -1.46024125814438 0.417862601578236 0.694458842277527 0.0492479503154755 0.00779286026954651 -0.83115291595459 -0.954610019922256 0.541077211499214 0.0617421120405197 0.418996348977089 0.114769518375397 0.450106849893928 0.507537141442299 -0.142756879329681 -0.1461719609797 1.4209291934967 -0.17247498780489 0.28915648162365 0.236181424930692 -0.445335276424885 -0.373562000691891 0.195368327200413 0.443486765027046 0.215755850076675 0.997014909982681 0.617592111229897 -0.340894190594554 0.662219524383545 0.275817876681685 0.233071446418762 -0.462294526398182 0.511678099632263 0.51317498087883 0.971425116062164 -0.647145986557007 -0.706348985433578 0.704661220312119 -0.365840154699981 0.450991913676262 -0.661257983185351 0.497487708926201 -0.153156295418739 0.544440090656281 0.606026656925678 -0.125679485499859 1.12566003203392 -0.185229457914829 0.649311661720276 -0.532120522053447
"appalling" 0.239720091223717 -0.107052251696587 -0.323686152696609 0.0601636655628681 -0.415098518133163 0.121035315096378 -0.604841679334641 -0.138479577377439 -0.288866840302944 0.0117007493972778 0.184678182005882 -0.315843313932419 -0.128856390714645 -0.475859180092812 -0.158620595932007 -0.0658928081393242 0.630550399422646 -0.107493754476309 0.423817902803421 0.507496245205402 -0.737912654876709 -0.589993208646774 -0.306525833904743 0.861407421529293 0.0299146771430969 0.0123846381902695 -0.366468511521816 0.181807652115822 0.229548409581184 0.228063032031059 0.41913964599371 0.122812420129776 0.0209880322217941 -0.0992942005395889 0.549634695053101 -0.0147873759269714 -0.23987090587616 0.436472222208977 -0.176220208406448 -0.0168091766536236 -0.0867742449045181 -0.0846295654773712 -0.177988573908806 0.126992024481297 0.465512996539474 -0.336235598661005 -0.523522511124611 -0.686882376670837 -0.0157909169793129 -0.0290776193141937
"suspects" 0.364208411425352 0.178002163767815 0.238019794225693 0.125008974224329 -0.662339225411415 -0.340842744335532 -0.00212934613227844 -0.613778278231621 0.351152330636978 0.0328839868307114 -0.263960439711809 -0.565981470048428 0.0451072603464127 0.645643010735512 -1.22305575013161 -0.31529407016933 0.387670584022999 0.422549547627568 0.675815835595131 0.55269281566143 -0.0846691206097603 -0.253613218665123 0.314324028789997 0.047879695892334 0.303129404783249 0.374733805656433 0.866697490215302 -0.749286368489265 -0.271585203707218 0.0221647694706917 0.0651848316192627 0.129453618079424 0.386454522609711 -0.447267226874828 -0.752627581357956 -0.506108202040195 -0.489025115966797 0.55044312030077 -0.264122284948826 0.0122474581003189 0.16906651109457 0.464480057358742 0.0455538183450699 -0.489619876723737 0.304011553525925 0.490820169448853 -0.537899076938629 -0.475797869265079 -0.585219383239746 -0.164581201970577
"picking" 0.108657423406839 0.263167500495911 0.965503722429276 -0.350782439112663 -0.0864414982497692 0.14009390771389 0.23752523213625 0.469136983156204 -0.55588236451149 -0.540883719921112 0.290663719177246 0.224998686462641 0.754491709172726 -0.00761871039867401 -0.946789532899857 -0.589102983474731 -0.0835902565158904 -0.125488646328449 -0.4810611307621 0.00269511342048645 -0.246680974960327 -0.41065239906311 -0.202234074473381 0.731299042701721 -0.0271337255835533 0.749683886766434 1.10868999361992 0.148573808372021 -0.0653215348720551 0.313706323504448 -0.338287658989429 -0.430665582418442 -0.0537213385105133 0.387827932834625 0.307873476296663 -0.473826058208942 -0.340289805084467 0.161605723202229 -0.541094064712524 0.0674755498766899 -0.191282659769058 0.132920223288238 -0.518430680036545 -0.964817970991135 0.240095153450966 -0.923678755760193 -0.12948839366436 0.0269011408090591 0.220461152493954 0.0175118446350098
"house" -0.273830737918615 -0.490111406892538 -0.104287765920162 -0.687524572014809 -0.030672219581902 0.105377964675426 0.649896800518036 0.0367746651172638 -0.47416265308857 0.214262127876282 -0.461605913937092 -0.11783803999424 -0.436052575707436 0.123842976987362 0.646127492189407 0.137381374835968 -1.02663812041283 0.228439152240753 0.028402142226696 -0.0150033682584763 0.876900851726532 0.261463067494333 -0.479335054755211 0.500136986374855 0.0276851505041122 0.317378833889961 0.316192455589771 -0.0534227900207043 0.284649848937988 -0.290155991911888 0.371884971857071 0.423374824225903 0.10365703701973 0.600999392569065 -0.448390029370785 -0.125332355499268 0.846758127212524 -0.127743154764175 -0.336603954434395 -1.06440189480782 -1.0126513838768 -0.0142268389463425 0.288429141044617 0.385688826441765 -0.436525098979473 -0.26045013545081 -0.766678482294083 -0.172296419739723 0.194546040147543 0.077478589490056
"bettie" 0.613735273480415 0.562728449702263 -0.0649713315069675 -0.474422931671143 -0.393807083368301 0.702435970306396 -0.522283509373665 -0.902266591787338 -0.392720468342304 0.458586410619318 -0.355562470853329 -0.47573658823967 -0.238885601982474 -0.151569094508886 -0.305117025971413 0.399099081754684 -1.6576572060585 0.0806260704994202 -0.792563736438751 -0.87038853764534 -0.671998769044876 0.519144222140312 1.34977996349335 0.519650019705296 0.390888497233391 0.428778378292918 -0.354918673634529 -1.13508939743042 -0.674772977828979 -0.357173457741737 0.199439760297537 0.434676483273506 0.743234872817993 0.293486878275871 0.381351664662361 0.79889777302742 -1.90942144393921 0.586040705442429 -1.0297654569149 -0.037089716643095 0.341742724180222 0.617966562509537 -0.514866691082716 -0.391495451331139 0.705701038241386 -0.525599557906389 -1.12069579958916 -0.758991450071335 0.668853998184204 0.200582817196846
"ultimately" -0.153636991977692 0.0555853098630905 0.307668268680573 0.468506306409836 0.121483344584703 -0.458222724497318 -0.206758230924606 -0.857475459575653 0.00185245834290981 -0.00882003456354141 0.0542512014508247 0.339540250599384 -0.0728425830602646 0.365028068423271 -0.447679981589317 0.0785226635634899 -0.109127137809992 -0.0268989307805896 0.35529843531549 -0.391014620661736 -0.439903423190117 0.235919296741486 1.06832045316696 0.0894928798079491 0.689412862062454 -0.304113414138556 0.0997788980603218 -0.394904375076294 -0.202874630689621 1.02940163016319 0.0905664637684822 -0.369542047381401 -0.651305943727493 -0.290527060627937 -0.0542309675365686 0.0398988053202629 0.455614998936653 0.273120805621147 -0.138726927340031 0.259773995727301 -0.181302726268768 0.0436058156192303 -0.237646520137787 0.265338864177465 0.0427004098892212 0.558822929859161 -0.218285895884037 -0.459913641214371 0.455089077353477 0.216475371271372
"ruined" 0.858494073152542 -0.345873098820448 0.00812236685305834 0.087737038731575 0.172908842563629 0.0737369209527969 -0.522145718336105 0.715841211378574 0.211500883102417 -0.5850750207901 0.109039425849915 0.258838750422001 -0.744777500629425 -0.430776715278625 -0.467159911990166 0.609265096485615 -0.274968603625894 0.128362456336617 -0.57041472196579 0.176826562732458 -0.444677069783211 -0.743677947670221 0.0392999066971242 -0.488833196461201 0.542281329631805 -0.307078197598457 -0.35854110121727 -0.427961930632591 -0.909574687480927 -0.476577240973711 0.130727723240852 0.413766898214817 0.0533504402264953 -0.127266600728035 0.816130850464106 -0.141463709995151 -0.722249925136566 0.0694853477180004 0.0145339965820312 -0.0146348252892494 -0.0710180550813675 -0.255013506859541 -0.109181560575962 0.136931856628507 0.396683424711227 0.329860031604767 -0.385522349737585 0.0580270886421204 0.695011720061302 -0.0786348916590214
"threat" 1.07742297649384 0.592256456613541 0.441517427563667 0.235140473581851 -0.161039531230927 -0.844181537628174 0.343515314161777 -0.857797086238861 -0.0268345177173615 0.199350912123919 0.200314223766327 -0.58979806303978 -1.10250636935234 0.300458101788536 0.398404344916344 -0.280630372464657 -0.140561953186989 0.100620821118355 0.181092482060194 0.479150742292404 0.146256145089865 0.788199812173843 1.28394177556038 0.435925669968128 -0.183016151189804 0.213844880461693 -0.187099516391754 0.429784849286079 -0.909125924110413 0.0602897629141808 -0.336417738348246 -0.51120625436306 -0.257561858510599 0.0638256072998047 -0.454929530620575 0.630221364088356 -0.532937571406364 -0.383114457130432 -0.346477590501308 0.725317627191544 -0.260325059294701 0.84579998254776 0.49893556535244 -0.888172537088394 0.421223938465118 -0.0986863076686859 -0.712891481816769 -0.0839745104312897 0.642941683530807 0.17520825471729
"c" 0.0592824220657349 0.108385726809502 0.477204829454422 -0.107556074857712 -0.556931808590889 -0.511682022362947 0.490916911512613 -0.280445642769337 0.443101957440376 -0.791257411241531 -0.566801652312279 -0.568063765764236 0.116368403658271 0.694949463009834 -0.14220155775547 0.130867600440979 0.385368123650551 0.701060298830271 0.292259991168976 -0.742941290140152 -0.894450932741165 -0.234341405332088 -0.0937966667115688 0.522327778860927 -0.57754248380661 -0.120077010244131 0.531796351075172 -0.611673414707184 0.452747315168381 0.156377667561173 0.931668967008591 0.952797889709473 1.28996157646179 0.125460451468825 -0.891126990318298 -0.641635000705719 -0.638044625520706 -0.388647675514221 1.07176721096039 -0.100010022521019 -1.45568811893463 0.60480959713459 -0.0767143368721008 0.730168074369431 -0.17379242181778 0.351101219654083 -0.106669753789902 -0.172587350010872 0.0664419606328011 1.1621036529541
"can" -0.431348070502281 0.536850158125162 -0.252415426075459 -0.17577288299799 -0.0806366363540292 0.119764104485512 0.301687970757484 -0.391207873821259 -0.220847353339195 -0.0938007831573486 -0.0816747657954693 1.19636571407318 -0.240806529298425 0.728247061371803 -0.110058224759996 0.472977664321661 0.0621112883090973 -0.530034050345421 -0.0783530697226524 0.318326309323311 0.225331388413906 0.788908645510674 0.0906715486198664 -0.566948071122169 -0.68431656062603 -0.583711192011833 0.850512951612473 0.929310619831085 0.566231787204742 0.348176464438438 0.223393142223358 0.033875584602356 0.201760318130255 -1.07427471876144 -0.0990018248558044 -0.213058665394783 1.27912077307701 -0.0921309292316437 -0.25993649289012 -0.668922454118729 0.732531897723675 -0.277523847296834 0.231924772262573 -0.166852086782455 -1.25983712077141 0.457251906394958 0.656587846577168 0.508179612457752 -0.499235518276691 -0.176495082676411
"presentation" -0.658937737345695 0.391294911503792 -0.0982172936201096 -0.404518337920308 0.0667991861701012 -0.102857943624258 0.411199077963829 0.421728283166885 0.513049490749836 0.0608325004577637 -0.0337144434452057 0.00305734574794769 -0.36557936668396 -0.481762647628784 -0.0710872616618872 -0.702196031808853 0.442178826779127 0.0831025429069996 0.251211941242218 0.444988034665585 -0.210796978324652 -0.355081301182508 0.450481981039047 0.204143345355988 -0.0613533705472946 0.196488575311378 -0.668617397546768 -0.0914269965142012 0.189067870378494 0.0760191380977631 0.0247864052653313 -0.432580515742302 0.158236004412174 -0.397197812795639 0.534943416714668 -0.0121666491031647 -0.537471041083336 -0.055642943829298 0.396386235952377 0.622133165597916 0.300641709938645 -0.188579887151718 0.52145779132843 -0.334264369681478 0.0329999178647995 0.0951478001661599 -0.230359442532063 -0.304125472903252 0.228809341788292 -0.0724710673093796
"named" -0.0459164381027222 -0.364080317318439 0.855667382478714 -0.284482255578041 0.161404777318239 0.417067810893059 -0.844661265611649 -0.336551492102444 -0.0355131514370441 0.0377346277236938 -0.760622829198837 -0.745048940181732 0.117380173876882 0.660724103450775 0.197584427893162 1.0610057413578 -0.101915307343006 0.523681104183197 0.5768021941185 -0.0455208122730255 0.310785099864006 0.189049459295347 -0.0645662695169449 0.272684961557388 0.567335367202759 0.0780728748068213 0.626902341842651 -0.162253193557262 -0.214122354984283 -0.76222088932991 -0.0884742438793182 -0.24314421415329 -0.00681721419095993 1.56005811691284 0.780285716056824 0.429429620504379 0.617230907082558 -0.414978757500648 0.0565345101058483 0.041252538561821 0.204664632678032 0.146586999297142 0.308484189212322 -0.00759802758693695 0.0215784460306168 0.172933265566826 0.183073170483112 -0.898020029067993 -0.232096008956432 0.656674519181252
"fun" -0.211196139454842 -0.349094212055206 0.372862093150616 0.897477477788925 0.0126205831766129 -0.77640837430954 0.0455285459756851 0.503854557871819 0.960297390818596 -0.295052915811539 0.187307946383953 0.487179815769196 0.310870785266161 -1.14090433716774 -0.243118740618229 -0.688581064343452 -0.472104966640472 0.936806827783585 0.0088401734828949 0.157433152198792 0.684402465820312 0.764919310808182 -0.160200200974941 0.027092139236629 -0.601096589118242 -0.0397557551041245 -0.0115750655531883 0.695724219083786 -0.0147016942501068 -0.17843109369278 0.956256955862045 0.242653332650661 0.590584486722946 -0.769594550132751 -0.0120813511312008 -0.0986323207616806 0.656306713819504 -0.0795520097017288 -0.0322401896119118 -0.30654089525342 -0.338479297235608 0.346039868891239 0.0233551152050495 -0.0502395108342171 -0.341391801834106 -0.343520440161228 1.05332943797112 -0.63006654381752 0.200764901936054 0.104562848806381
"limited" 0.649660378694534 -0.750080764293671 0.0614665895700455 0.660052433609962 -0.0463468506932259 -0.552773989737034 0.224884631112218 -0.562249526381493 0.396989863365889 -0.390256181359291 0.337265655398369 -0.036161407828331 -0.527360036969185 -0.354656472802162 0.459543198347092 -0.65385769365821 0.587337732315063 0.182410377077758 -0.0740271806716919 -0.0839316695928574 -0.108227446675301 -0.367377781774849 0.0430809371173382 0.64668196439743 0.37395179271698 -0.296834051609039 -1.08289808034897 -0.164146695286036 -0.530323818325996 -0.576033726334572 -0.318752564489841 -0.265508904121816 -0.842947632074356 0.46446730196476 -0.158187748864293 -0.35483556240797 0.552986219525337 0.531480599194765 -0.304852388799191 0.733772933483124 -0.42457390576601 -0.542135414667428 0.194628121331334 0.330683171749115 0.845312029123306 0.26155005581677 0.320370256900787 0.964724570512772 0.347291082143784 0.356268756091595
"ball" 0.101405084133148 -0.236762344837189 0.207738418132067 -0.0925642922520638 0.0394568145275116 -0.333124160766602 -0.0408625826239586 -0.10890257358551 0.188277669250965 0.174843458458781 0.0543121099472046 -0.310802899301052 -0.17337784729898 -0.123519277200103 -0.264770828187466 -0.159540566848591 0.259710446000099 -0.0826274678111076 0.298096507787704 -0.281928954005707 -0.0748578067868948 0.542602777481079 0.261822033673525 0.470237329602242 0.745443075895309 0.390100000426173 0.288904070854187 -0.00566293299198151 -0.555674999952316 0.0400824835523963 -0.580600678920746 -0.20690280944109 -0.949370086193085 -0.0837276466190815 -0.199409246444702 0.083911519497633 -0.0798572637140751 0.47904771566391 -0.437041163444519 0.257180757820606 -0.480249479413033 0.316254757344723 0.500070080161095 -0.0845988634973764 0.0598151683807373 -0.222095414996147 -0.310808524489403 -0.420497715473175 0.119503447320312 0.363931541331112
"jeff" 0.0352776115760207 -0.499957621097565 0.787383645772934 0.77420648932457 0.207473903894424 -0.78645633161068 -0.085274800658226 0.0857437113299966 0.0727870613336563 -0.263394703157246 0.185684278607368 -0.125888528302312 0.0739374458789825 0.649971827864647 -0.61976620554924 0.652913153171539 -0.122287459671497 -0.739251345396042 0.654823809862137 0.388737455010414 -0.680748760700226 -0.111984712420963 0.581286668777466 0.413054332137108 0.353492304682732 0.240169823169708 0.538541913032532 -0.452669613063335 0.040227435529232 -0.378160089254379 -0.298403412103653 0.0469522476196289 -0.0132168233394623 -0.0611366778612137 0.645632356405258 0.539346128702164 -0.397773455828428 0.826664119958878 -0.222118772566319 0.054395642131567 -0.762960821390152 0.311267077922821 0.0472389971837401 -0.0228953944751993 -0.244169622659683 0.188499274197966 0.141838897019625 -0.139860883355141 -0.20170645788312 0.311804436147213
"slapstick" 0.327215779572725 0.339412402361631 0.041150851175189 -0.503660649061203 -0.560316193848848 0.038800336420536 1.06577736139297 0.51583956182003 0.374627776443958 0.348787099123001 -0.0734670162200928 -0.0106533169746399 0.199259261135012 -0.358298674225807 -0.0496863890439272 -0.329167068004608 0.00310316868126392 0.786231726408005 -0.171971045434475 0.133533105254173 -0.37098666280508 0.387143087573349 0.292065413668752 0.398400865495205 -0.703997477889061 0.960333675146103 0.616609022021294 -0.817608922719955 -0.736730307340622 0.32241153717041 -0.618618533015251 0.0944802816957235 -0.047787950374186 -0.0740044238045812 -0.133218318223953 -0.679422572255135 -0.370992705225945 0.909795433282852 -0.0315425544977188 0.618716865777969 -0.0735200718045235 -0.118321165442467 0.302275523543358 -0.375716038048267 -0.496364071965218 -0.1509162876755 -0.962709486484528 -0.156528741121292 0.484726130962372 0.0836543887853622
"talks" 0.481296181678772 -0.613552272319794 0.950054258108139 0.986867606639862 0.144856967031956 0.152281634509563 -0.212342534214258 -0.425941541790962 -0.285941533744335 0.237880729138851 0.348109441809356 -0.677368029952049 -0.404422856867313 0.91278013586998 0.466936498880386 0.871137745678425 -0.43193094804883 0.328697524964809 1.14073580503464 0.674445085227489 -0.473449945449829 -0.0318032801151276 0.445220798254013 -0.707705538719893 0.385385163128376 -0.269213547930121 -0.226865120232105 0.564803630113602 0.303891744464636 0.400045016780496 0.886992901563644 -0.935386270284653 -0.60823717713356 -0.183955049142241 0.285779464989901 0.347676672041416 -0.443164944648743 0.713062971830368 -0.0340015441179276 0.133802677039057 -0.241505920886993 0.513711608946323 -0.448990479111671 -0.283386439085007 1.07009959220886 0.314383193850517 1.03255644440651 -0.246532991528511 -0.113201469182968 -0.243878699839115
"learned" 0.371016873046756 -0.350194049067795 -0.0386664271354675 0.0528199970722198 0.152941644191742 1.00363603234291 -0.3119235932827 0.24886305257678 0.314564595697448 0.0328906252980232 0.0882288217544556 -0.76864093542099 -0.316289957612753 0.615728586912155 -0.29149304702878 0.890797078609467 0.0770638976246119 -0.693227559328079 0.303850844502449 0.176246389746666 -0.687439799308777 0.381879977881908 0.876910746097565 -0.229954853653908 0.140691965818405 -0.29343384411186 -0.213765461230651 0.345587037503719 0.466608330607414 -0.286744251847267 1.43077671527863 0.223992129787803 0.222337275743484 -0.365510009229183 0.305634438991547 0.580616652965546 -0.655985660851002 0.124867856502533 0.884773850440979 0.423832699656487 0.123236946761608 -0.306500373408198 0.329762786626816 0.558031901717186 0.291237726807594 0.0490130037069321 -0.204084349796176 0.302634803578258 0.578842043876648 0.098677693749778
"lame" -0.274926528334618 0.152550398372114 -0.0406399499624968 0.000258564949035645 -0.31429036706686 0.244191179517657 0.215660433284938 0.228783063590527 -0.00450798869132996 0.339172445237637 0.265509120654315 0.402433234266937 -0.350305423140526 -0.270877880975604 0.198563247919083 -0.799005091190338 0.214070361107588 0.511590640991926 0.288890512660146 -0.284307561814785 0.354559175670147 -0.334241472184658 0.0179880559444427 0.0550155825912952 0.308592587709427 -0.515263929963112 0.16924174502492 -0.15074560791254 0.417185336351395 0.124624567106366 0.864309519529343 0.386567853391171 -0.648993700742722 0.074714183807373 0.785825312137604 -0.591345116496086 0.213327951729298 -0.145686335861683 0.576850838959217 -0.324266076087952 -0.246744200587273 0.806593373417854 0.0215678215026855 -0.720956165343523 0.400923475623131 0.197883538901806 -0.346068367362022 -0.262780964374542 0.125247895717621 0.680091440677643
"victim" 0.684144884347916 -1.26729199290276 -0.327387191355228 -0.360366493463516 0.987507075071335 0.26585251186043 -0.124277332797647 -0.277130169793963 -0.386164292693138 0.178195817396045 -0.138927813619375 -0.206629188731313 0.0444341152906418 0.470865249633789 0.607133314013481 0.965162575244904 -0.129944736137986 1.16872251033783 0.222077652812004 -0.246296599507332 -0.221244186162949 0.582206293940544 0.573668111115694 0.0202969014644623 0.380326189100742 0.130803309381008 0.181344378739595 0.145100539550185 0.215173728764057 0.10308544896543 -0.656336396932602 -0.0885102450847626 0.0993431732058525 0.238160494714975 -0.479044422507286 0.108143031597137 -0.886086091399193 0.511373706161976 -0.466923706233501 -0.0177090466022491 0.14818421198288 0.268284574151039 0.563977107405663 0.238711729645729 0.514160223305225 0.326257541775703 -0.0179757922887802 -0.0087084649130702 -0.735165491700172 0.0099930465221405
"interesting" 0.250289306044579 0.550994172692299 -0.145947381854057 0.099023699760437 -0.251757942140102 -0.315065681934357 0.0186226516962051 0.203652903437614 0.289872780442238 -0.189964972436428 0.271596387028694 -0.102364175021648 -0.146994203329086 -0.723614156246185 0.432353887706995 -0.605022171512246 0.326550105586648 0.385037146508694 -0.0477564185857773 -0.122428208589554 -0.164919406175613 -0.11672218888998 -0.124983284622431 -0.160176709294319 -0.758749634027481 -0.895568639039993 -0.264487199485302 0.161253213882446 0.108250893652439 0.795295432209969 0.495838940143585 -0.10939359664917 -0.165027724229731 -1.50716581940651 0.0680713057518005 0.452834486961365 1.01065927743912 -0.358525156974792 0.248169146478176 -0.418875869363546 0.609206192195415 0.782586872577667 0.330597475171089 0.244766034185886 0.52432082593441 1.23352605104446 0.8443244099617 -0.593247946351767 0.252655386924744 -0.108638614416122
"dogs" 0.188997961580753 -0.810713440179825 0.594342589378357 0.371980592608452 -0.386651538312435 -0.0693688243627548 0.211497493088245 0.379115520976484 -0.16508343629539 -0.154702629894018 -0.542090103030205 -0.434030324220657 0.333201035857201 -0.00243031978607178 -0.253601729869843 0.153828132897615 0.441735178232193 -0.447970047593117 0.667398929595947 0.518560200929642 0.0386423505842686 0.277809415012598 -0.250167228281498 0.173315674066544 -0.386351025430486 0.862806081771851 0.830194592475891 0.00855854153633118 0.0899860262870789 -0.017041303217411 0.799648135900497 0.337360821664333 -0.100447691977024 0.0855502039194107 -0.202505707740784 -0.298214821144938 -0.271759700030088 -0.395489741116762 -0.0496595799922943 0.286269910633564 -0.795578926801682 0.453096438199282 -0.4922915995121 0.0749180968850851 0.277385681867599 0.395582720637321 0.0955643802881241 -0.398606806993484 0.10736570507288 0.291086345911026
"garbo" 0.00750288739800453 -0.0820639207959175 0.106037514284253 0.531348630785942 0.343683362007141 0.208375561982393 -0.387143433094025 -0.448029279708862 0.0864862576127052 0.120853567495942 0.248852916061878 -0.616381570696831 -0.588687360286713 -0.0775437504053116 -0.42423415184021 0.49447013437748 -0.0393025183584541 -0.819268330931664 -0.281256067566574 0.690602913498878 0.0808763206005096 -0.596425563097 0.0864107757806778 0.153411395847797 0.725634872913361 0.00855389796197414 -0.0611098408699036 -0.691661342978477 -0.141768451780081 -0.203598380088806 -0.431611072272062 -0.646786727011204 0.101226065307856 0.521265625953674 -0.324161902070045 0.473775260150433 -0.462844669818878 0.851504862308502 0.137193705886602 -0.0432464778423309 -0.217026835307479 -0.341810179874301 0.0900692455470562 0.452154159545898 0.236900463700294 -0.0600016685202718 -0.0479179616086185 -0.445034105330706 0.105261523276567 -0.41433197259903
"former" -0.0598809458315372 -0.568330951035023 -0.530847422778606 -0.572170093655586 -0.377754285931587 -0.277666628360748 0.639414638280869 -1.30174046754837 -0.347556486725807 0.00270369648933411 -0.425884813070297 -0.661943137645721 0.298262647818774 0.0618496090173721 -0.087902017403394 0.977018415927887 0.384676650166512 -0.0129360482096672 -0.0259275287389755 -0.870326846837997 -0.120481707155704 0.569666728377342 -0.783256351947784 -0.217082057148218 0.144178174436092 0.573112159967422 -0.0731841269880533 -0.132408201694489 0.641124725341797 -0.291169049218297 0.0209061726927757 0.0141471605747938 0.015263807028532 0.507473468780518 -0.150074973702431 0.177754618227482 0.00652871280908585 -0.0822148695588112 0.127362342551351 -0.0966304950416088 -0.375598102807999 0.243847012519836 -0.0523715484887362 -0.455979764461517 -0.0969918901100755 -0.483122512698174 -0.462891593575478 -0.79129883646965 -0.968438178300858 -0.147384695708752
"peak" 0.470174640417099 -0.222989648580551 -0.142002638429403 0.0846392102539539 -0.00134972482919693 -1.04998898506165 -0.281328551471233 0.421213276684284 -0.404267966747284 0.0734835118055344 0.27166785299778 -0.485352210700512 0.101636797189713 -1.07010138034821 0.205848082900047 0.211981179192662 0.355741523206234 -0.0449231863021851 0.0365162640810013 0.235646855086088 -0.10473964177072 -0.798696964979172 -0.583831325173378 -0.452191885560751 0.98598501086235 0.99634313583374 -0.590229868888855 -0.405100889503956 -0.379981301724911 0.0481369495391846 -0.38506555557251 -0.684977754950523 -0.283409915864468 0.271811045706272 -1.50695753097534 -0.0789924189448357 -1.57990473508835 -0.0508349053561687 -0.329332642257214 0.185092557221651 -0.548971571028233 -0.118564505130053 0.000981099903583527 -1.35415822267532 0.0464706625789404 0.0731387287378311 -0.0137759149074554 -0.208302144892514 -0.27703283727169 0.542871419340372
"dollar" -0.898095220327377 -0.579929582774639 0.660712331533432 -0.0367733091115952 0.0529258474707603 0.0504266321659088 -0.483433656394482 -0.0557534629479051 0.854099974036217 -0.366046220064163 -0.147360861301422 -1.02897065877914 -0.0559478923678398 0.00133256241679192 0.0481015872210264 -0.192510928027332 0.818045556545258 -0.718844324350357 0.176226444542408 0.316195882856846 -0.533145189285278 0.059477623552084 0.454418823122978 -0.540887832641602 0.38940355181694 0.465094305574894 0.0988709181547165 0.19724500621669 -0.448984980583191 -0.761001400649548 -0.339636065065861 -0.340447254478931 0.850765734910965 0.614179879426956 -0.688352704048157 0.44660946726799 -1.04350593686104 0.772477149963379 -0.0908430190756917 1.65879398584366 -0.26834462583065 0.381187256425619 0.0288952514529228 -0.372647702693939 0.153782922774553 -0.225312903523445 0.152676362544298 0.52563863992691 -0.641489923000336 0.45880138874054
"use" 0.357138527557254 0.185756966471672 -0.106507077813148 -0.204852893948555 -0.196966922841966 0.430924281477928 0.861819446086884 -0.0562137346714735 0.0568839460611343 -0.745306298136711 -0.318799309432507 0.0988904237747192 -0.649257972836494 -0.277841694653034 -0.154887632001191 -0.249197915196419 -0.0947169214487076 -0.718665584921837 -0.447952620685101 -0.0716596841812134 0.25821284390986 0.569753617048264 -0.351389855146408 0.123684458434582 0.305108787491918 0.545508701354265 -0.043014258146286 0.767599254846573 -0.134937845170498 -0.477412983775139 0.462756149470806 -0.144627496600151 -0.290081739425659 -0.815001577138901 -0.401284001767635 -0.387043491005898 0.608265325427055 0.0698345154523849 -0.635608673095703 -0.286573022603989 0.203162968158722 0.328378759324551 0.139612466096878 0.0924021545797586 0.364245265722275 -0.32122939452529 0.563764169812202 -0.250707238912582 -0.828693181276321 0.591797314584255
"amateurish" -0.0192162378225476 -0.014637291431427 0.062250092625618 0.741792768239975 -0.045379064977169 -0.185217149555683 0.676863104104996 0.0485240668058395 0.694652646780014 0.442182749509811 0.295532874763012 -0.344782486557961 -0.478588610887527 -0.290873591322452 -0.584137290716171 -0.395584210753441 0.206508986651897 -0.109904039651155 0.777748256921768 0.0278490707278252 -0.383684121072292 -1.1148107945919 0.0545708760619164 0.047219917178154 1.04973593354225 -0.0134912990033627 -0.393162876367569 -0.221190910320729 0.10703544318676 0.21576272866514 0.0373900681734085 0.319505661725998 -0.159991391003132 0.00541974604129791 1.01123471558094 -0.636158281937242 -0.367096595466137 0.250692844390869 0.0309189409017563 0.0147935329005122 0.14575706794858 0.491618573665619 -0.566505372524261 0.284279524348676 -0.0272829234600067 0.543226346373558 -0.22844295296818 -0.991344183683395 0.37727789580822 -0.132058709859848
"lincoln" -0.799656271934509 -0.16774708032608 0.498974643647671 -0.0115471184253693 -0.121911853551865 0.864183366298676 -0.145989229902625 -0.513287339359522 0.376579895615578 1.3332214653492 0.77043628692627 -0.0365007221698761 0.000197947025299072 0.304099433124065 0.101150441914797 -0.00327813625335693 0.193250611424446 -0.033710815012455 0.168656751513481 0.378140084445477 0.240131105296314 0.0489553809165955 1.56568014621735 0.0613418649882078 1.17712384462357 0.221560798585415 -0.0445922315120697 -0.553796112537384 0.0452670454978943 -0.208723342046142 0.308726985007524 -0.800287842750549 0.763072431087494 1.10511881113052 0.377922639250755 -0.392949163913727 -0.243926929309964 0.00187666714191437 0.282574243843555 0.289787724614143 -0.731657266616821 -0.112104834988713 -0.368658874183893 -0.00479145348072052 0.182238198816776 -0.0906942486763 -0.0670706911478192 -0.255059376358986 -0.164958691690117 0.352106299251318
"ego" -0.299638241529465 -0.993358314037323 0.219181731343269 0.136701159179211 -0.413306519389153 -0.621204551309347 -0.32991249114275 -0.531626492738724 0.00529687106609344 -0.393399640917778 0.287645801901817 -0.683717682957649 -0.104457795619965 0.411210238933563 -0.651881903409958 0.556663066148758 0.241261154413223 0.351926863193512 0.722438335418701 0.0979986637830734 -0.0181583181256428 -0.59530858695507 -0.542861387133598 0.943158477544785 0.243513177614659 0.751064464449883 -0.642334505915642 -0.210142344236374 0.347097307443619 -1.25138509273529 0.532187610864639 -0.177618805319071 -0.495137684047222 -0.262238858267665 0.140267491340637 -0.479091294109821 0.131855085492134 1.74375438690186 -0.733919441699982 0.294978613033891 -0.0116488039493561 0.456504598259926 0.226168990135193 0.0138242989778519 -0.48905885964632 -0.333747923374176 -0.787716627120972 -1.46501278877258 0.104170694947243 -0.444748222827911
"shoots" 0.488308966159821 -0.0711904077325016 0.237771682441235 1.26841640472412 -0.300798274576664 -0.229873031377792 -0.601892575621605 0.036824643611908 -0.563330009579659 0.508193820714951 0.427879214286804 0.115023169666529 1.08022686839104 0.239564068615437 0.281293608248234 0.634448111057281 0.832938313484192 -1.28312873840332 -0.112017124891281 0.438219949603081 -0.00205202167853713 -0.728474393486977 0.80398964881897 -0.734311670064926 0.0824400074779987 0.176395729184151 0.418132536113262 0.13409386575222 -0.246994618559256 -0.24587194621563 -0.151413440704346 -0.461386442184448 0.04542176425457 0.812349557876587 -0.196722745895386 -0.322056064382195 -0.532370461151004 0.186471000313759 -0.161347096785903 0.497493416070938 -0.385131441056728 0.135296583175659 -0.674579739570618 0.0624420046806335 0.871901400387287 0.00390558876097202 -0.218937780708075 0.201880358159542 -0.0968044400215149 0.29998429492116
"comedies" -0.0296048857271671 -0.27390999707859 0.445335447788239 -0.629742175340652 -0.52010016143322 0.735796459019184 -0.46369881182909 -0.0764288008213043 -0.271476864814758 0.233700410462916 0.610091984272003 0.0456278808414936 0.0579077452421188 0.336808599531651 0.419629495590925 -0.422137923538685 -0.141623541712761 0.641238212585449 -0.0789518095552921 0.673568516969681 -0.235519349575043 0.535724878311157 -0.11888050287962 -0.165375508368015 -0.839334845542908 0.823525220155716 -0.30061911046505 0.0855008810758591 0.205123793333769 -0.155030019581318 0.332973100244999 0.0430433005094528 0.530383139848709 0.0408179424703121 -0.113122483715415 0.666280925273895 -0.559828191995621 -1.1791213452816 0.348911099135876 0.668181896209717 -0.579808335751295 0.247122436761856 -0.399356819689274 -0.270425613969564 -0.422353394329548 -0.559188194572926 -0.178203247487545 0.415484418161213 -0.131061874330044 -0.613263413310051
"stupidity" 0.703849643468857 0.061745161190629 0.453884925693274 -0.0253319125622511 0.770720183849335 0.583426058292389 0.260077439248562 -0.164568927139044 0.626305744051933 0.976205825805664 0.503853425383568 -0.954881221055984 -0.0666030268184841 -0.345391653478146 -0.317731197923422 -0.626012444496155 0.0618337355554104 0.0465486664324999 -0.618057407438755 0.420183449983597 -0.488820508122444 -0.238726265728474 0.185495052486658 0.412448778748512 -0.623087346553802 0.881338715553284 -0.595851942896843 0.491477712988853 0.0990176387131214 -0.136040672659874 -0.495535209774971 0.0972671508789062 -0.362391926348209 0.358855247497559 0.212106968974695 -0.0119967311620712 -0.881548792123795 0.57237945497036 0.0440242774784565 0.310243383049965 -0.34771827980876 -0.0115433186292648 -0.135609000921249 -0.258087880909443 0.950411823578179 0.071440564468503 0.625145018100739 -0.524316262453794 0.553840413689613 -0.0983891263604164
"quiet" -0.504749439656734 -0.310829263180494 0.0383380688726902 0.480585612356663 -0.135017558932304 -0.162672370672226 -0.226473566144705 0.471063319593668 0.161789208650589 0.244298860430717 0.25921081751585 -0.222731098532677 0.165670320391655 -0.491913378238678 0.23098517395556 0.0114842653274536 0.317963324487209 -0.143092274665833 0.734454676508904 -0.0338275283575058 0.0190355181694031 0.307197391986847 0.440489865839481 -0.0237079262733459 0.964601874351501 -0.164538271725178 0.430273652076721 -0.180265042930841 0.363495588302612 0.512393534183502 0.199599079787731 -0.910990953445435 -0.585163623094559 0.401037335395813 0.609452173113823 -0.308824784122407 0.127521596848965 0.246236063539982 0.0329942442476749 0.204534307122231 -0.259385794401169 0.612363398075104 -0.220935316756368 -0.418106809258461 0.768953010439873 -0.104203362949193 0.075509637594223 0.198877587914467 0.622957676649094 0.112807475030422
"drop" 0.483710363507271 -0.616992086172104 -0.162109851837158 0.960509270429611 0.0899236798286438 0.27423710282892 -0.0596925318241119 -0.158097982406616 -0.425566360354424 -0.343488588929176 -0.589864417910576 0.454788386821747 0.263735622167587 -0.354224595241249 -0.225459441542625 -0.601177394390106 -0.168017007410526 0.491031602025032 -0.419540211558342 -0.200083628296852 -0.228598147630692 0.384227812290192 0.0293791145086288 -0.043152242898941 0.384032860398293 0.708905696868896 0.98854649066925 -0.572407945990562 -0.814002245664597 -1.12828743457794 0.375623047759291 0.335020080208778 -0.44212681800127 1.00315725803375 -0.994068920612335 -0.483932673931122 -0.297044534236193 -0.388316810131073 -0.688137084245682 0.29558752477169 -1.01268148422241 0.483599171042442 -0.569680169224739 -0.591058552265167 0.0313871204853058 0.104156479239464 0.129815250635147 0.445653855800629 1.03308242559433 -0.0301814675331116
"unconvincing" -0.166063381358981 -0.710448913276196 0.219433017075062 0.602541625499725 -0.73618721216917 0.669165462255478 -0.0549677610397339 0.00903043150901794 0.254088903777301 0.407561704516411 -0.207125447690487 -0.284483671188354 0.306416412815452 0.193693459033966 -0.515006184577942 -0.0332680400460958 0.253530651330948 0.694567799568176 0.88905543088913 -0.787546455860138 -0.636738687753677 0.65173015743494 0.126185396686196 0.800993494689465 0.314668342471123 -0.0376787185668945 -0.495819687843323 -1.0833343565464 -0.651787677779794 0.896324008703232 -0.0551086962223053 0.482039496302605 -0.10481858253479 -0.32975260540843 1.06894126534462 -0.431069582700729 -0.202477119863033 -0.343276187777519 0.12546523893252 -0.29133228957653 -0.00852401554584503 0.611030116677284 -0.488034121692181 0.35616509616375 0.281100479885936 -0.241910606622696 -0.766197308897972 0.373743787407875 0.925198704004288 -0.31607311218977
"struggling" 0.199038445949554 -0.560306012630463 -0.036839634180069 0.391931250691414 0.471300512552261 0.325018867850304 0.254620850086212 -0.731933444738388 0.388459175825119 -0.399945337325335 -0.571953520178795 -0.632995516061783 0.257341682910919 0.578197404742241 -0.182419314980507 -0.0834431499242783 0.635361358523369 -0.197620715945959 0.0432389751076698 -0.446507394313812 0.368115801364183 -0.175262421369553 -0.363593056797981 -0.346670553088188 -0.321853548288345 0.0775051172822714 0.332215443253517 0.405933745205402 -0.0575506761670113 -0.098122039809823 -0.0204126462340355 -0.320235937018879 -0.91704449057579 0.766724169254303 -0.247028347104788 -0.396779254078865 -0.228311654180288 0.350999344140291 -0.115144859999418 0.656035184860229 0.189155206084251 -0.0380252003669739 0.0240718573331833 -0.748868569731712 -0.00439596176147461 -0.427042171359062 -0.769300818443298 -0.413834515959024 -0.0994379222393036 0.0255345851182938
"argument" 0.244755446910858 -0.243736013770103 -0.616117563098669 0.117637649178505 0.0875955671072006 -0.00894561782479286 0.240509049966931 0.686631113290787 -0.267578329890966 -0.6227867603302 0.292627707123756 0.097353383898735 -1.3594805598259 0.712780311703682 -0.753319248557091 0.593407586216927 0.246909663081169 -0.592241734266281 0.073109969496727 0.259163707494736 -0.0988138727843761 -0.217214211821556 -0.214508544653654 1.08121038973331 -0.385493263602257 -0.328886561095715 0.581228107213974 0.00790636241436005 -0.248120576143265 0.294024765491486 -0.0993237048387527 0.185031594708562 -0.870163708925247 -0.0224206671118736 0.241072565317154 0.0547736696898937 0.261185344308615 -0.511122658848763 -0.478330910205841 1.07106989622116 -0.111282140016556 -0.0605853348970413 0.0623906850814819 -0.290250241756439 0.684658855199814 -0.28595158457756 -0.644386619329453 -0.213624075055122 -0.577476024627686 0.541367933154106
"aka" -0.314095485955477 -0.293002523481846 -0.23959718644619 0.422953769564629 -0.24139004945755 -0.0780084133148193 0.343989595770836 -0.388159953057766 -0.0366745591163635 0.479927569627762 -0.0939015746116638 -0.27188116312027 0.120082020759583 -0.701446324586868 0.63585889339447 0.0506808869540691 1.0890808403492 0.399069607257843 0.264627479016781 -0.167763084173203 -0.349436372518539 0.27895063906908 -0.191833078861237 0.918027073144913 0.295765869319439 0.917747884988785 0.427790492773056 0.0161879062652588 0.195687130093575 -1.04753902554512 0.760676115751266 -0.48924457654357 0.236981824040413 1.10072660446167 0.100596934556961 -0.612891308963299 -0.545736744999886 0.185302734375 1.05507671833038 0.145350456237793 -0.657586932182312 -0.0876469556242228 -0.0357238948345184 -0.201546415686607 -0.511459141969681 -0.167629204690456 -0.424043528735638 -0.497992411255836 0.769810914993286 0.322731027845293
"mile" -0.1237404756248 -0.48312483727932 0.91390261054039 0.354945309460163 0.586526408791542 1.24043262004852 -0.582147818058729 0.260641902685165 0.560259908437729 0.228013105690479 0.174175798892975 -0.411649491637945 -0.152859847992659 -0.13405046146363 0.217229969799519 0.530296627432108 -0.0823978185653687 0.0654320418834686 -0.639563411474228 -0.203977316617966 -0.477542251348495 0.378317028284073 0.573889501392841 -0.0248382352292538 1.13435104489326 0.316928118467331 -0.0720725581049919 -0.456017017364502 -0.651069611310959 1.7870796918869 -0.528439551591873 -0.737534135580063 -0.639918096363544 0.554196961224079 -0.370403110980988 -0.0167007297277451 -0.7979351952672 0.578482657670975 0.0370529145002365 -0.117618501186371 -0.243113987147808 0.663963675498962 -0.966538339853287 -0.768626131117344 -0.0690876748412848 -0.771673992276192 -0.564326569437981 0.675210818648338 0.496420443058014 0.196196883916855
"movie" -0.61808317899704 0.648208528757095 -0.0765618160367012 -0.278908444568515 0.490071449428797 -0.0462279878556728 -0.031648974865675 0.440827682614326 0.303171247243881 0.105169802904129 0.286091804504395 1.11052680946887 -0.507098317146301 -0.938358277082443 0.957145601511002 -0.213780507445335 -0.49619210138917 0.242679338902235 -0.363736391067505 0.134600982069969 0.83574652671814 0.11745577538386 -0.314138889312744 -0.611682817339897 -0.131717246025801 -0.992442220449448 -0.127952694892883 0.55253011919558 0.453357204794884 0.203903443180025 0.0985362529754639 0.219353828579187 0.987006336450577 -0.847745925188065 0.205792054533958 0.221412301063538 0.756324455142021 -0.678129613399506 0.175364576280117 -1.11850368976593 0.371732339262962 -0.140035808086395 0.432282578200102 0.835267782211304 -1.23267543315887 0.120094934478402 1.02996164560318 -0.0661150068044662 -0.035830270498991 0.161313995718956
"wanna" -0.667691498994827 0.310850828886032 1.07777360081673 -0.239529922604561 -0.119175497442484 0.267384231090546 0.0901123136281967 0.0749087631702423 0.995900750160217 -0.63264012336731 -0.883553743362427 0.301512487232685 -0.00141394138336182 0.0303811728954315 -1.11441153287888 -0.0653968155384064 0.235685748048127 -1.03352752327919 -0.337706357240677 -0.534129366278648 -0.660034954547882 0.598005890846252 0.99432036280632 -0.515590459108353 -0.778053671121597 0.88568389415741 0.825249552726746 -0.113094810396433 -0.887215353548527 0.610052026808262 0.364088550209999 -0.548352889716625 1.13615906238556 -0.390439480543137 0.539978533983231 0.0167454332113266 -0.809669435024261 0.804679572582245 0.152986370027065 1.0234401896596 -0.092457689344883 0.793994925916195 0.810156852006912 -0.531962394714355 -0.982266962528229 -0.725535169243813 -0.306326404213905 0.174652148038149 0.783637076616287 0.905346542596817
"wing" -0.133384823799133 0.0529956221580505 -0.591421477496624 -0.312486633658409 0.211284525692463 -0.781180992722511 -0.739319175481796 0.445579200983047 -0.702393591403961 0.79859159886837 0.0893158987164497 -1.38134294748306 -0.0156407654285431 -0.226794313639402 -0.96906790137291 0.22560915350914 -0.0701684653759003 -0.704152464866638 0.538495779037476 0.314090736210346 0.634637400507927 -0.800108127295971 -0.204763228073716 0.967463284730911 0.560641244053841 0.734747514128685 0.300779156386852 -0.388503730297089 -0.653092339634895 -0.545327469706535 0.533874541521072 -0.239261342212558 -0.262160284910351 0.874309360980988 -0.389291264116764 0.3821538425982 -0.399399228394032 -0.502045594155788 0.272589102387428 0.698710381984711 0.00987637788057327 -0.502204895019531 0.618765756487846 0.0784200504422188 0.429362222552299 -0.604795411229134 -0.529811337590218 -0.184835202991962 1.47421669960022 0.363327771425247
"taught" 0.599623441696167 -0.546503290534019 0.229641407728195 0.1926484182477 -0.89481657743454 0.809528380632401 -0.0948905646800995 0.808187425136566 0.05339165776968 -0.39219605922699 0.932743847370148 -0.0602629669010639 -0.166248384863138 -0.140970841050148 -0.236836403608322 0.0831013321876526 0.134073473513126 -1.11813309788704 -0.488312155008316 0.117025002837181 -0.038535051047802 -0.699645519256592 0.822133660316467 -0.697311542928219 -0.262924760580063 0.441173987463117 -0.207324147224426 -0.699829399585724 -0.958549559116364 0.364088863134384 0.673646241426468 -0.613085865974426 0.272492252290249 0.253516316413879 1.05886375904083 -0.0890018343925476 -0.590063467621803 0.841251358389854 -0.195556305348873 0.938250869512558 0.0356004536151886 -0.10757577419281 -0.0090324878692627 -0.301488142460585 0.867639690637589 -0.1444391310215 -0.0755045413970947 -0.325318943709135 0.687411546707153 0.0164871513843536
"focus" 0.306863682810217 -0.2630705088377 -0.300673514604568 -0.647528111934662 -0.498384356498718 -0.238822296261787 0.185207538306713 -0.30264588072896 0.250367142260075 -0.278143852949142 0.785962074995041 -0.288347013294697 -0.26352883130312 -0.0023815524764359 0.22541094198823 -0.210996601730585 -0.658358722925186 -0.294894501566887 -0.797118246555328 -0.431243840605021 -1.04830995202065 -0.465214937925339 0.074032299220562 0.11268363520503 -0.342543311417103 0.105198852717876 -0.321859106421471 0.73541833460331 -0.0978174805641174 -0.558410406112671 -0.645969495177269 -0.254476994276047 -1.04233431816101 0.12326608132571 0.29065652936697 0.325593754649162 0.127523481845856 0.139243142679334 -0.465316161513329 -0.510740041732788 0.189900659024715 0.762462586164474 0.502713687717915 -0.0909418165683746 0.703428313136101 -0.208064969629049 0.199694499373436 -0.162405848503113 0.743878059089184 -0.283765733242035
"nature" -0.558298394083977 -0.475215144455433 -0.535572454333305 -0.179405553266406 -0.155310947448015 -0.263312809169292 0.533532064408064 -0.669391006231308 -0.454088643193245 0.243495617061853 -0.18291350454092 -0.270821429789066 -0.0655989050865173 -0.684117594733834 0.299005530774593 0.06063312292099 -0.229707084596157 0.209744960069656 -0.0233789458870888 -0.218755766749382 -0.314500724896789 0.0262349024415016 -0.273466303944588 -0.390203446149826 0.011214517056942 0.822164833545685 -0.851005375385284 0.33916375041008 0.00533782690763474 0.168058823794127 0.233973281923681 -0.208422049880028 -0.12324383109808 0.0216507241129875 0.213069276884198 -0.225032327696681 0.340266644954681 -0.0243888311088085 0.319921791553497 0.11074723303318 0.0170129537582397 -0.277700886130333 0.279112368822098 -0.0786700695753098 0.447146616876125 0.160668350756168 -0.455785661935806 -1.24776196479797 0.00144604593515396 -0.235890574753284
"maniac" -0.361180916428566 -0.0721340253949165 -0.0296213030815125 0.243573427200317 0.295448794960976 0.283412471413612 0.400164261460304 0.377501346170902 0.170603513717651 0.818525895476341 0.675841324031353 -0.598580822348595 -0.245191423222423 0.22758219204843 0.201647453010082 0.180401682853699 0.235564913600683 0.464953795075417 -0.252493344247341 0.558386623859406 -0.289181336760521 0.00388428196310997 0.265366673469543 0.317827671766281 -0.244652204215527 -0.198653250932693 0.455668091773987 -0.870247483253479 0.138189721852541 -0.822447180747986 -0.219344899058342 0.216372314840555 -0.0873457044363022 0.388201557099819 0.471220448613167 -0.251450523734093 -0.679450243711472 -0.383552297949791 -0.670409590005875 0.368456982076168 -0.0921609774231911 0.766844928264618 0.294130861759186 -1.37514287233353 0.0782986413687468 -0.207192838191986 -0.889702662825584 -0.516282305121422 0.392254739999771 -0.350446084979922
"lisa" -0.175898306071758 -0.136697843670845 0.15942408144474 0.542195156216621 0.609184056520462 0.109448820352554 0.392349287867546 -0.63847404718399 -0.108859572559595 0.0196299711242318 -0.467675134539604 0.158297836780548 -0.0978667959570885 0.25099272839725 -0.54464216530323 0.289514914155006 -0.876384675502777 -0.268943521892652 0.150497119873762 0.116105150431395 -0.523116648197174 -0.839343696832657 -0.199104104191065 0.71798300743103 -0.738100290298462 -0.0314776301383972 0.558948189020157 -1.00427514314651 -0.361127354204655 0.443080291152 -0.759265795350075 -0.455675438046455 -0.196967579424381 0.258739488199353 0.0209706127643585 0.208994433283806 -0.877533674240112 0.788187503814697 0.392548568546772 0.359667833894491 -0.717995494604111 -0.0963891185820103 0.105889216065407 -0.154214975424111 0.15695296227932 0.147781159728765 -0.0914051681756973 -0.103349089622498 -0.0825511068105698 -0.133267510682344
"mother" -0.348113983869553 -0.84599357843399 -0.853694468736649 0.226647425442934 0.385378032922745 0.159102186560631 0.047079361975193 -1.18124517798424 -0.365612417459488 -0.111532857641578 -0.412146456539631 -1.09220597147942 0.72126293182373 0.623787492513657 0.327517598867416 0.652768772095442 0.0293210670351982 0.106763079762459 0.298123829066753 -0.884378433227539 0.189301341772079 0.34912152774632 0.00846223533153534 -0.530007183551788 -0.0251127332448959 -0.137541238218546 0.399870131164789 -0.257459193468094 0.614088118076324 -0.045915188267827 -0.661270778626204 1.06848940253258 0.020456014201045 0.133088298141956 -0.685600250959396 -0.123218623921275 0.623516380786896 0.865964084863663 -1.04469522833824 -0.0202905759215355 -0.266708709299564 -0.468171775341034 0.328647661954165 0.383986130356789 -0.136997103691101 0.247604250907898 0.451245680451393 -0.275137305259705 -0.0404212679713964 -0.325901955366135
"santa" -0.0623694788664579 -0.0195974111557007 -0.0773432105779648 -0.434267587959766 0.158509762957692 -0.0156014040112495 -0.556537583470345 -0.140100911259651 -0.510862797498703 0.232320101931691 0.120148852467537 -0.241938448045403 -0.838387042284012 -0.248526304960251 -0.330495215952396 0.819210529327393 0.257148887962103 -0.409719966351986 0.0951900333166122 0.707722041755915 0.0180534869432449 0.165126389823854 0.131284959614277 0.577917039394379 0.554731622338295 0.282569266855717 0.957337290048599 -0.432220548391342 0.760181128978729 -0.807100564241409 0.329166181385517 -0.186523653566837 0.0872233137488365 -0.107061788439751 0.0573902241885662 0.180574208498001 0.0880756657570601 -0.0452435303013772 0.276306837797165 1.09474310278893 -0.286642274819314 -0.361177027225494 0.203782916069031 -0.222171693108976 -0.0396824162453413 0.0867017507553101 -0.484595224261284 0.0876943822950125 0.421330027282238 -0.183879546821117
"murderer" 0.229118186980486 -0.453125569969416 0.251752506941557 -0.677818104624748 0.288861244916916 0.285732544958591 0.270773574709892 -0.192422971129417 0.222643338143826 -0.143358970060945 -0.430492906365544 -0.0725301336497068 0.457149505615234 0.381276465952396 0.0140468031167984 0.507063701748848 -0.0334498099982738 0.570940032601357 0.228011041879654 -0.865935802459717 -0.179534509778023 0.485549032688141 0.310693174600601 0.361606635153294 1.04360783100128 0.122702866792679 0.31974533945322 0.0892234742641449 -0.978949695825577 0.329874098300934 0.405077196657658 -0.669166669249535 0.192618921399117 0.713285997509956 0.298907184973359 -0.269403159618378 -0.3303162753582 0.659393116831779 -0.880960047245026 0.396731488406658 0.454165548086166 -0.0748217850923538 0.0970816435292363 0.303139287978411 0.284430627711117 0.163961753249168 -1.3422886133194 -0.556890711188316 0.602902323007584 -0.185316175222397
"linda" -0.0358045250177383 -1.03631603717804 0.714506775140762 0.269068032503128 -0.0752221420407295 -0.595247507095337 -0.319055646657944 0.0845395028591156 0.298495918512344 0.0731645077466965 0.179210014641285 -0.697757706046104 -0.0478429645299911 0.4532860070467 -0.121546968817711 0.27837073802948 0.610180109739304 0.252066232264042 1.26019328832626 0.0622178390622139 -0.148474087938666 -0.0728156864643097 0.6684360653162 -0.274222835898399 0.188293188810349 0.476498663425446 0.192835375666618 -0.308156255632639 0.331488952040672 -0.0484241787344217 0.37267193198204 -0.118772879242897 -0.74854938685894 0.174907401204109 0.747418791055679 -0.2736876308918 -0.706090450286865 1.12391471862793 -0.0464728362858295 0.393395282328129 -0.11712583899498 0.389062198810279 -0.172529734671116 1.13063761591911 0.882201731204987 -0.0897085294127464 -0.367376938462257 -0.170073717832565 0.320607653819025 0.631201580166817
"17" 0.0985261355526745 0.35261033475399 0.0614218860864639 -0.663932166993618 0.250382861122489 -0.0700983330607414 -0.679735466837883 0.536124303936958 0.25094048678875 -0.125105779618025 0.553490951657295 -0.48757791519165 -0.223544295877218 0.458708013873547 -0.152568310499191 1.04601848125458 0.914374202489853 0.0807957127690315 -0.498901665210724 -0.124178690835834 -0.336234956979752 0.124897679314017 -0.0327425859868526 -0.446181088685989 0.950444608926773 -0.096745565533638 0.0123990178108215 -0.224352706223726 0.135607738047838 -0.202421694993973 0.436189442873001 0.2604172937572 -0.435955211520195 1.20264866948128 0.122811924666166 -0.137039452791214 0.0796295441687107 0.14996936917305 0.813642770051956 0.064992256462574 -0.151922270655632 -0.171590942889452 -0.33065078407526 0.00627649575471878 -0.0210694521665573 -1.14807724952698 -0.850662559270859 -0.235902473330498 -0.553409673273563 0.556179329752922
"mary" -0.480548344552517 -0.632419988512993 0.269713513553143 0.47316874563694 0.322763025760651 0.224457949399948 -0.556522637605667 -0.851275026798248 0.175595400854945 0.12847426533699 -0.103505875915289 -0.798962503671646 -0.0130199249833822 -0.0937010049819946 0.239679284393787 0.73179592192173 0.340073056519032 -0.494197990745306 0.313487365841866 0.225210577249527 -0.101421631872654 -0.0344986617565155 0.0525448173284531 0.546286433935165 0.112419876502827 -0.0224554091691971 0.239409230649471 -0.861683696508408 -0.0705235302448273 -0.205341834574938 -0.420406229794025 0.246545311063528 0.384111069142818 0.103880792856216 -0.343825668096542 -0.147990914760157 -0.763905316591263 0.00653794407844543 -0.0349012017250061 0.0457308441400528 -0.649580672383308 -0.227714523673058 -0.0241039432585239 0.98284900188446 0.309780210256577 0.462188899517059 0.692180693149567 -0.524127058684826 0.322696432471275 -0.0746085718274117
"touched" 0.466550186276436 0.206452071666718 0.7057785987854 -0.18873505294323 -0.288356691598892 -0.580169811844826 0.122758120298386 0.190243318676949 -0.324591487646103 -0.139466896653175 0.976359814405441 0.426573440432549 0.421621536836028 -0.596913266927004 -0.465359598398209 -0.216621410101652 0.547256484627724 -0.920065879821777 -0.439361304044724 -0.269857712090015 -0.821173787117004 -1.13181975483894 -0.473336651921272 -0.978503912687302 -0.253780692815781 0.549405470490456 0.556897819042206 -0.770491689443588 -0.058671310544014 -0.707641310989857 0.293913312256336 -0.471348032355309 -0.208200383698568 0.545271769165993 1.06025043129921 -0.31504599750042 -1.08343631029129 0.32576750125736 0.170855410397053 -0.0610157921910286 0.0371214300394058 -0.252505123615265 0.0528021156787872 0.316078513860703 0.0257855802774429 -0.24780510365963 0.108658328652382 0.0108784735202789 1.20393973588943 0.796253800392151
"unbelievable" -0.0419635493308306 0.246118165552616 -0.315347135066986 0.0329807251691818 0.191525049507618 -0.974394738674164 -0.134722650051117 -0.323781359940767 0.209517454728484 0.0631864815950394 0.296552185900509 0.435755103826523 0.498215854167938 -0.151867331936955 -0.449211940169334 -0.89474892616272 0.556447386741638 0.342910036444664 -0.0486359521746635 -0.452640943229198 -0.801393136382103 -1.00359618663788 0.179431259632111 0.684477046132088 0.538114309310913 -0.557435840368271 -0.0935996174812317 -0.248620018362999 -0.148893281817436 1.07972258329391 0.199909821152687 0.268101520836353 -1.18305414915085 -0.353767439723015 0.750060439109802 -0.13574030995369 0.171755790710449 0.862964540719986 0.656540364027023 -0.277482695877552 0.196276098489761 0.176647033542395 -0.177849300205708 0.31691800057888 0.209033809602261 0.451714282855392 0.00163783133029938 -0.356472000479698 0.833164662122726 -0.110115498304367
"involves" -0.158697858452797 -0.0546731725335121 0.164732910692692 -0.513789623975754 -0.0227846503257751 0.226375304162502 0.624449372291565 0.681340575218201 0.463981986045837 -0.494477450847626 0.611330047249794 -0.582011697813869 -0.289812423288822 0.363133296370506 0.366610022261739 -0.10174323618412 0.341766446828842 0.604358434677124 0.389085948467255 -0.27807542681694 -0.939380675554276 -0.368042133748531 -0.120542138814926 0.238370396196842 0.195417314767838 0.382314234972 -0.110767260193825 -0.307701677083969 -0.866896152496338 0.19303123280406 0.246966421604156 -0.582552194595337 -0.861766070127487 -0.10318636149168 0.404300443828106 -0.202842496335506 -0.421569809317589 0.224933713674545 1.18933123350143 -0.0352095402777195 -0.412013486027718 0.409730911254883 0.185478255152702 -0.722418174147606 0.23390693590045 0.421162776648998 -0.925591737031937 0.230382904410362 0.151047229766846 0.0470430552959442
